{"learner":{"attributes":{"best_iteration":"343","best_score":"10.996644112114941","scikit_learn":"{\"_estimator_type\": \"regressor\"}"},"feature_names":["horizon_months","income","commute_time","pct_bachelors","racial_diversity_index","mortgage_rate","fed_funds","unemployment","CPI","zip_te","state_te","county_te"],"feature_types":["float","float","float","float","float","float","float","float","float","float","float","float"],"gradient_booster":{"model":{"cats":{"enc":[],"feature_segments":[],"sorted_idx":[]},"gbtree_model_param":{"num_parallel_tree":"1","num_trees":"374"},"iteration_indptr":[0,1,2,3,4,5,6,7,8,9,10,11,12,13,14,15,16,17,18,19,20,21,22,23,24,25,26,27,28,29,30,31,32,33,34,35,36,37,38,39,40,41,42,43,44,45,46,47,48,49,50,51,52,53,54,55,56,57,58,59,60,61,62,63,64,65,66,67,68,69,70,71,72,73,74,75,76,77,78,79,80,81,82,83,84,85,86,87,88,89,90,91,92,93,94,95,96,97,98,99,100,101,102,103,104,105,106,107,108,109,110,111,112,113,114,115,116,117,118,119,120,121,122,123,124,125,126,127,128,129,130,131,132,133,134,135,136,137,138,139,140,141,142,143,144,145,146,147,148,149,150,151,152,153,154,155,156,157,158,159,160,161,162,163,164,165,166,167,168,169,170,171,172,173,174,175,176,177,178,179,180,181,182,183,184,185,186,187,188,189,190,191,192,193,194,195,196,197,198,199,200,201,202,203,204,205,206,207,208,209,210,211,212,213,214,215,216,217,218,219,220,221,222,223,224,225,226,227,228,229,230,231,232,233,234,235,236,237,238,239,240,241,242,243,244,245,246,247,248,249,250,251,252,253,254,255,256,257,258,259,260,261,262,263,264,265,266,267,268,269,270,271,272,273,274,275,276,277,278,279,280,281,282,283,284,285,286,287,288,289,290,291,292,293,294,295,296,297,298,299,300,301,302,303,304,305,306,307,308,309,310,311,312,313,314,315,316,317,318,319,320,321,322,323,324,325,326,327,328,329,330,331,332,333,334,335,336,337,338,339,340,341,342,343,344,345,346,347,348,349,350,351,352,353,354,355,356,357,358,359,360,361,362,363,364,365,366,367,368,369,370,371,372,373,374],"tree_info":[0,0,0,0,0,0,0,0,0,0,0,0,0,0,0,0,0,0,0,0,0,0,0,0,0,0,0,0,0,0,0,0,0,0,0,0,0,0,0,0,0,0,0,0,0,0,0,0,0,0,0,0,0,0,0,0,0,0,0,0,0,0,0,0,0,0,0,0,0,0,0,0,0,0,0,0,0,0,0,0,0,0,0,0,0,0,0,0,0,0,0,0,0,0,0,0,0,0,0,0,0,0,0,0,0,0,0,0,0,0,0,0,0,0,0,0,0,0,0,0,0,0,0,0,0,0,0,0,0,0,0,0,0,0,0,0,0,0,0,0,0,0,0,0,0,0,0,0,0,0,0,0,0,0,0,0,0,0,0,0,0,0,0,0,0,0,0,0,0,0,0,0,0,0,0,0,0,0,0,0,0,0,0,0,0,0,0,0,0,0,0,0,0,0,0,0,0,0,0,0,0,0,0,0,0,0,0,0,0,0,0,0,0,0,0,0,0,0,0,0,0,0,0,0,0,0,0,0,0,0,0,0,0,0,0,0,0,0,0,0,0,0,0,0,0,0,0,0,0,0,0,0,0,0,0,0,0,0,0,0,0,0,0,0,0,0,0,0,0,0,0,0,0,0,0,0,0,0,0,0,0,0,0,0,0,0,0,0,0,0,0,0,0,0,0,0,0,0,0,0,0,0,0,0,0,0,0,0,0,0,0,0,0,0,0,0,0,0,0,0,0,0,0,0,0,0,0,0,0,0,0,0,0,0,0,0,0,0,0,0,0,0,0,0,0,0,0,0,0,0,0,0,0,0,0,0,0,0,0,0,0,0,0,0,0,0,0,0,0,0,0,0,0,0],"trees":[{"base_weights":[2.0207446E-3,-3.4973984E0,7.0409746E0,-2.6141005E0,-8.604903E0,1.9672237E1,4.851071E0,-3.8099363E0,-1.4146755E0,-7.3086047E0,-9.393389E0,1.6023891E1,2.4433764E1,7.5035377E0,-1.5096275E1,-4.3943524E0,-2.8880928E0,-2.6257176E0,4.9526867E-1,-6.055767E0,-7.733758E0,-8.623055E0,-1.0164634E1,2.2062372E1,1.4095772E1,1.8411865E1,2.7188107E1,1.0588371E1,-5.0618644E0,-1.6292849E1,1.9998693E1,-4.9323487E0,-4.0500755E0,-2.2157745E0,-4.205067E0,-3.8600664E0,-2.0083551E0,2.2170892E0,-2.9209065E0,-6.9971733E0,-5.1178384E0,-7.213566E0,-8.255346E0,-8.30671E0,-9.828417E0,-9.703672E0,-1.1922927E1,2.2914234E1,1.3253906E1,1.1770868E1,1.6469387E1,2.155736E1,1.2899154E1,2.4887896E1,3.2050835E1,5.9758244E0,1.8900215E1,5.714646E0,-8.154104E0,-1.3089022E1,-2.9340342E1,1.5812703E1,3.6411648E1,-1.9854106E-1,-2.5633195E-1,-2.097644E-1,-1.419385E-1,-1.3698243E-1,3.7485786E-2,-2.7407485E-1,-7.333752E-2,-9.499975E-2,-2.1229294E-1,-7.009423E-2,-1.6871357E-1,3.5099722E-2,2.5806525E-1,-2.57155E-1,1.6875151E-1,-3.2769972E-1,-3.6099556E-1,-2.831725E-1,-1.5198009E-1,-3.9408478E-1,-3.33325E-1,-3.491529E-1,-4.4510865E-1,-4.2883602E-1,-3.8388485E-1,-5.172515E-1,-4.3133473E-1,-5.274014E-1,-4.6205053E-1,-6.260409E-1,-4.9089345E-1,1.1891187E0,7.6391953E-1,5.0266284E-1,1.0260822E0,6.9626206E-1,4.2714587E-1,5.883109E-1,8.81217E-1,1.0319682E0,1.6172745E0,7.529451E-1,4.4390073E-1,1.1585898E0,1.3158839E0,1.4237398E0,1.8157068E0,3.8707358E-1,-1.2756057E-1,1.1102775E0,1.0426759E-1,1.1317618E-1,1.0900309E0,-2.1155205E-1,-5.403654E-1,-2.71422E-1,-6.857113E-1,-1.3132349E0,-1.8392111E0,4.8499584E-1,1.0748304E0,1.5600986E0,2.4830205E0],"categories":[],"categories_nodes":[],"categories_segments":[],"categories_sizes":[],"default_left":[0,0,0,0,0,0,0,0,0,0,0,0,0,0,0,0,0,0,0,0,0,0,0,0,0,0,0,0,0,0,0,0,0,0,0,0,0,0,0,0,0,0,0,0,0,0,0,0,0,0,0,0,0,0,0,0,0,0,0,0,0,0,0,0,0,0,0,0,0,0,0,0,0,0,0,0,0,0,0,0,0,0,0,0,0,0,0,0,0,0,0,0,0,0,0,0,0,0,0,0,0,0,0,0,0,0,0,0,0,0,0,0,0,0,0,0,0,0,0,0,0,0,0,0,0,0,0],"id":0,"left_children":[1,3,5,7,9,11,13,15,17,19,21,23,25,27,29,31,33,35,37,39,41,43,45,47,49,51,53,55,57,59,61,63,65,67,69,71,73,75,77,79,81,83,85,87,89,91,93,95,97,99,101,103,105,107,109,111,113,115,117,119,121,123,125,-1,-1,-1,-1,-1,-1,-1,-1,-1,-1,-1,-1,-1,-1,-1,-1,-1,-1,-1,-1,-1,-1,-1,-1,-1,-1,-1,-1,-1,-1,-1,-1,-1,-1,-1,-1,-1,-1,-1,-1,-1,-1,-1,-1,-1,-1,-1,-1,-1,-1,-1,-1,-1,-1,-1,-1,-1,-1,-1,-1,-1,-1,-1,-1],"loss_changes":[2.4191909E8,2.9594864E7,9.021106E7,8.021748E6,9.88528E5,8.370528E6,1.4705792E8,1.50876E6,6.45838E6,1.94804E5,3.57212E5,3.176224E6,3.466744E6,9.509155E7,1.3699136E7,3.1744E5,9.62091E5,1.302111E6,6.372938E6,8.180775E4,7.4046E4,1.14648E5,2.43454E5,4.95158E5,1.141024E6,1.137396E6,1.603552E6,7.551386E7,1.6113787E7,1.318628E7,7.38409E5,1.24924E5,1.83828E5,1.1175635E6,1.283573E6,4.30781E5,9.435595E5,3.2134162E6,5.079835E6,4.51875E3,5.2635875E4,4.9932E4,1.12165E5,4.0414E4,3.874E4,9.292E4,7.8433E4,3.98744E5,1.3529175E5,7.2643E5,5.55618E5,4.13018E5,2.0689125E5,2.38324E5,7.0114E5,1.9071256E7,3.9068576E7,5.9853195E6,3.910902E6,1.212932E6,1.422832E6,2.9762125E5,1.4926275E5,0E0,0E0,0E0,0E0,0E0,0E0,0E0,0E0,0E0,0E0,0E0,0E0,0E0,0E0,0E0,0E0,0E0,0E0,0E0,0E0,0E0,0E0,0E0,0E0,0E0,0E0,0E0,0E0,0E0,0E0,0E0,0E0,0E0,0E0,0E0,0E0,0E0,0E0,0E0,0E0,0E0,0E0,0E0,0E0,0E0,0E0,0E0,0E0,0E0,0E0,0E0,0E0,0E0,0E0,0E0,0E0,0E0,0E0,0E0,0E0,0E0,0E0,0E0,0E0],"parents":[2147483647,0,0,1,1,2,2,3,3,4,4,5,5,6,6,7,7,8,8,9,9,10,10,11,11,12,12,13,13,14,14,15,15,16,16,17,17,18,18,19,19,20,20,21,21,22,22,23,23,24,24,25,25,26,26,27,27,28,28,29,29,30,30,31,31,32,32,33,33,34,34,35,35,36,36,37,37,38,38,39,39,40,40,41,41,42,42,43,43,44,44,45,45,46,46,47,47,48,48,49,49,50,50,51,51,52,52,53,53,54,54,55,55,56,56,57,57,58,58,59,59,60,60,61,61,62,62],"right_children":[2,4,6,8,10,12,14,16,18,20,22,24,26,28,30,32,34,36,38,40,42,44,46,48,50,52,54,56,58,60,62,64,66,68,70,72,74,76,78,80,82,84,86,88,90,92,94,96,98,100,102,104,106,108,110,112,114,116,118,120,122,124,126,-1,-1,-1,-1,-1,-1,-1,-1,-1,-1,-1,-1,-1,-1,-1,-1,-1,-1,-1,-1,-1,-1,-1,-1,-1,-1,-1,-1,-1,-1,-1,-1,-1,-1,-1,-1,-1,-1,-1,-1,-1,-1,-1,-1,-1,-1,-1,-1,-1,-1,-1,-1,-1,-1,-1,-1,-1,-1,-1,-1,-1,-1,-1,-1],"split_conditions":[3.6E1,8.7E0,4.4E0,1.2E1,1.4E-1,6.4276543E0,4E0,6.620384E0,6.620384E0,4.3E0,1.2E1,3.9E0,4.34E0,8.7E0,6.81E0,4.238747E0,5.92E0,3.9905796E0,1.81E0,1.2E1,1.2E1,7.4198413E0,7.4198413E0,4.88E0,4.6593704E0,3.0205223E-1,9.260937E0,6.8217254E0,1.1E-1,7.5211205E0,8.03555E0,4.4E0,6.81E0,5.42E0,6.81E0,4.4E0,1.98E0,9.8E-1,6.81E0,4.11E0,7.8878446E0,4.86E0,4.71E0,9.6E0,9.6E0,4.76E0,4.9439815E-1,5.380704E-1,9.1806E4,4.59E0,1.16E0,1.3896574E1,5.0752723E-1,2.6993167E-1,4.88E0,1.81E0,1.81E0,8.226268E0,4.86E0,4.21E0,9.847096E0,5.3703294E0,1.0434737E1,-1.9854106E-1,-2.5633195E-1,-2.097644E-1,-1.419385E-1,-1.3698243E-1,3.7485786E-2,-2.7407485E-1,-7.333752E-2,-9.499975E-2,-2.1229294E-1,-7.009423E-2,-1.6871357E-1,3.5099722E-2,2.5806525E-1,-2.57155E-1,1.6875151E-1,-3.2769972E-1,-3.6099556E-1,-2.831725E-1,-1.5198009E-1,-3.9408478E-1,-3.33325E-1,-3.491529E-1,-4.4510865E-1,-4.2883602E-1,-3.8388485E-1,-5.172515E-1,-4.3133473E-1,-5.274014E-1,-4.6205053E-1,-6.260409E-1,-4.9089345E-1,1.1891187E0,7.6391953E-1,5.0266284E-1,1.0260822E0,6.9626206E-1,4.2714587E-1,5.883109E-1,8.81217E-1,1.0319682E0,1.6172745E0,7.529451E-1,4.4390073E-1,1.1585898E0,1.3158839E0,1.4237398E0,1.8157068E0,3.8707358E-1,-1.2756057E-1,1.1102775E0,1.0426759E-1,1.1317618E-1,1.0900309E0,-2.1155205E-1,-5.403654E-1,-2.71422E-1,-6.857113E-1,-1.3132349E0,-1.8392111E0,4.8499584E-1,1.0748304E0,1.5600986E0,2.4830205E0],"split_indices":[0,7,7,0,6,9,6,9,9,5,0,7,5,7,5,9,5,9,6,0,0,11,11,5,9,3,9,9,6,11,11,7,5,5,5,7,6,6,5,5,9,5,5,7,7,5,3,3,1,5,6,9,3,3,5,6,6,9,5,6,11,9,11,0,0,0,0,0,0,0,0,0,0,0,0,0,0,0,0,0,0,0,0,0,0,0,0,0,0,0,0,0,0,0,0,0,0,0,0,0,0,0,0,0,0,0,0,0,0,0,0,0,0,0,0,0,0,0,0,0,0,0,0,0,0,0,0],"split_type":[0,0,0,0,0,0,0,0,0,0,0,0,0,0,0,0,0,0,0,0,0,0,0,0,0,0,0,0,0,0,0,0,0,0,0,0,0,0,0,0,0,0,0,0,0,0,0,0,0,0,0,0,0,0,0,0,0,0,0,0,0,0,0,0,0,0,0,0,0,0,0,0,0,0,0,0,0,0,0,0,0,0,0,0,0,0,0,0,0,0,0,0,0,0,0,0,0,0,0,0,0,0,0,0,0,0,0,0,0,0,0,0,0,0,0,0,0,0,0,0,0,0,0,0,0,0,0],"sum_hessian":[9.821233E6,6.559951E6,3.261282E6,5.592738E6,9.67213E5,4.8187E5,2.779412E6,2.800558E6,2.79218E6,3.65813E5,6.014E5,2.72829E5,2.09041E5,2.453202E6,3.2621E5,1.713963E6,1.086595E6,1.708725E6,1.083455E6,9.269E4,2.73123E5,3.00884E5,3.00516E5,6.6029E4,2.068E5,6.5608E4,1.43433E5,1.969649E6,4.83553E5,3.15455E5,1.0755E4,6.6881E5,1.045153E6,7.19362E5,3.67233E5,5.69689E5,1.139036E6,7.20373E5,3.63082E5,4.6256E4,4.6434E4,1.36752E5,1.36371E5,2.3834E5,6.2544E4,2.38101E5,6.2415E4,6.0205E4,5.824E3,1.04475E5,1.02325E5,4.1771E4,2.3837E4,9.7377E4,4.6056E4,1.266708E6,7.02941E5,1.07815E5,3.75738E5,2.53267E5,6.2188E4,8.571E3,2.184E3,1.12429E5,5.56381E5,9.33269E5,1.11884E5,6.11361E5,1.08001E5,2.50476E5,1.16757E5,9.369E4,4.75999E5,7.88806E5,3.5023E5,4.7562E5,2.44753E5,2.68362E5,9.472E4,1.5482E4,3.0774E4,3.6777E4,9.657E3,6.1558E4,7.5194E4,4.5967E4,9.0404E4,1.66749E5,7.1591E4,4.3735E4,1.8809E4,8.4276E4,1.53825E5,4.8605E4,1.381E4,5.4057E4,6.148E3,4.045E3,1.779E3,6.2655E4,4.182E4,2.0176E4,8.2149E4,3.8498E4,3.273E3,1.5506E4,8.331E3,4.4265E4,5.3112E4,2.5051E4,2.1005E4,1.049412E6,2.17296E5,5.87462E5,1.15479E5,8.8771E4,1.9044E4,1.51593E5,2.24145E5,1.9111E4,2.34156E5,4.4009E4,1.8179E4,4.131E3,4.44E3,1.57E3,6.14E2],"tree_param":{"num_deleted":"0","num_feature":"12","num_nodes":"127","size_leaf_vector":"1"}},{"base_weights":[-1.4292556E-3,-3.323708E0,6.679482E0,-2.4838185E0,-8.175551E0,1.8683441E1,4.596881E0,-3.6193316E0,-1.3436146E0,-6.9439807E0,-8.924988E0,1.5218642E1,2.319569E1,7.12071E0,-1.4379246E1,-4.172639E0,-2.7456746E0,-2.5312765E0,4.08668E-1,-5.854884E0,-7.312147E0,-8.323094E0,-1.1325694E1,2.0945496E1,1.3398422E1,1.796103E1,2.6076351E1,1.0049843E1,-4.8044558E0,-1.1098079E1,-3.183778E1,-4.757143E0,-3.8800113E0,-2.107055E0,-4.003157E0,-1.9919668E0,-3.7895143E0,2.013438E0,-2.7721598E0,-6.7095423E0,-4.998861E0,-6.965903E0,-8.669277E0,-9.380301E0,-7.8625007E0,-1.0067358E1,-1.2586495E1,2.175421E1,1.2632873E1,1.2210829E1,1.7869743E1,2.090876E1,1.2557068E1,2.3263803E1,3.0025568E1,6.0302377E0,1.8684542E1,5.441407E0,-7.7497597E0,-7.4229174E0,-1.321817E1,-2.4446602E1,-3.649592E1,-1.9132927E-1,-2.4726327E-1,-1.8193659E-1,-2.2892891E-1,-1.4276604E-1,-3.2468405E-2,-1.7666826E-1,-5.4911107E-1,-6.404987E-2,-1.8766879E-1,-5.7800716E-1,-1.6279909E-1,2.9515699E-2,2.5497076E-1,-1.0807886E-1,-8.927885E-1,-3.0582234E-1,-3.5426107E-1,-2.730981E-1,-1.5336089E-1,-3.256375E-1,-3.8678274E-1,-3.843345E-1,-4.8241362E-1,-4.4144937E-1,-5.4373527E-1,-3.6931726E-1,-4.1688225E-1,-5.5551594E-1,-4.701738E-1,-7.1350044E-1,-5.788309E-1,5.342172E-1,1.1202118E0,4.8879847E-1,1.0068412E0,6.9908816E-1,4.8413563E-1,5.751013E-1,1.0149077E0,9.941935E-1,1.4727672E0,7.332761E-1,4.3952304E-1,1.2618142E0,1.0886092E0,1.3488927E0,1.6525353E0,3.866646E-1,-1.0920303E-1,1.0973333E0,9.858291E-2,1.1949488E-1,1.1416099E0,-4.2995164E-1,-1.3878821E-1,-4.8033133E-1,7.785825E-1,-5.9316206E-1,-8.0156976E-1,-1.5421402E0,1.7251643E0,-1.8937216E0,-1.2753329E0],"categories":[],"categories_nodes":[],"categories_segments":[],"categories_sizes":[],"default_left":[0,0,0,0,0,0,0,0,0,0,0,0,0,0,0,0,0,0,0,0,0,0,0,0,0,0,0,0,0,0,0,0,0,0,0,0,0,0,0,0,0,0,0,0,0,0,0,0,0,0,0,0,0,0,0,0,0,0,0,0,0,0,0,0,0,0,0,0,0,0,0,0,0,0,0,0,0,0,0,0,0,0,0,0,0,0,0,0,0,0,0,0,0,0,0,0,0,0,0,0,0,0,0,0,0,0,0,0,0,0,0,0,0,0,0,0,0,0,0,0,0,0,0,0,0,0,0],"id":1,"left_children":[1,3,5,7,9,11,13,15,17,19,21,23,25,27,29,31,33,35,37,39,41,43,45,47,49,51,53,55,57,59,61,63,65,67,69,71,73,75,77,79,81,83,85,87,89,91,93,95,97,99,101,103,105,107,109,111,113,115,117,119,121,123,125,-1,-1,-1,-1,-1,-1,-1,-1,-1,-1,-1,-1,-1,-1,-1,-1,-1,-1,-1,-1,-1,-1,-1,-1,-1,-1,-1,-1,-1,-1,-1,-1,-1,-1,-1,-1,-1,-1,-1,-1,-1,-1,-1,-1,-1,-1,-1,-1,-1,-1,-1,-1,-1,-1,-1,-1,-1,-1,-1,-1,-1,-1,-1,-1],"loss_changes":[2.1797739E8,2.6727936E7,8.153936E7,7.238916E6,8.9326E5,7.538576E6,1.33114344E8,1.354152E6,5.805911E6,1.46776E5,8.69356E5,2.843084E6,3.157816E6,8.569015E7,1.8689936E7,2.93336E5,8.72284E5,1.12833E6,5.75282E6,6.7649E4,1.28525E5,2.3419E5,1.9123E5,4.41968E5,1.098888E6,1.184074E6,1.49988E6,6.835485E7,1.4598041E7,2.13992E6,1.776264E6,1.00146E5,1.92622E5,7.85739E5,1.19946E6,1.457576E6,2.0682585E6,3.2897798E6,3.480563E6,1.0270625E4,4.1332E4,7.6001E4,5.343E4,1.20181E5,7.5754E4,4.16965E4,1.02258E5,4.31148E5,1.2489419E5,7.32094E5,6.71438E5,4.20792E5,2.08294E5,2.31612E5,5.17168E5,1.8799588E7,3.410632E7,5.731838E6,1.587182E6,5.045596E6,6.63718E5,7.526337E6,4.78664E5,0E0,0E0,0E0,0E0,0E0,0E0,0E0,0E0,0E0,0E0,0E0,0E0,0E0,0E0,0E0,0E0,0E0,0E0,0E0,0E0,0E0,0E0,0E0,0E0,0E0,0E0,0E0,0E0,0E0,0E0,0E0,0E0,0E0,0E0,0E0,0E0,0E0,0E0,0E0,0E0,0E0,0E0,0E0,0E0,0E0,0E0,0E0,0E0,0E0,0E0,0E0,0E0,0E0,0E0,0E0,0E0,0E0,0E0,0E0,0E0,0E0,0E0,0E0,0E0],"parents":[2147483647,0,0,1,1,2,2,3,3,4,4,5,5,6,6,7,7,8,8,9,9,10,10,11,11,12,12,13,13,14,14,15,15,16,16,17,17,18,18,19,19,20,20,21,21,22,22,23,23,24,24,25,25,26,26,27,27,28,28,29,29,30,30,31,31,32,32,33,33,34,34,35,35,36,36,37,37,38,38,39,39,40,40,41,41,42,42,43,43,44,44,45,45,46,46,47,47,48,48,49,49,50,50,51,51,52,52,53,53,54,54,55,55,56,56,57,57,58,58,59,59,60,60,61,61,62,62],"right_children":[2,4,6,8,10,12,14,16,18,20,22,24,26,28,30,32,34,36,38,40,42,44,46,48,50,52,54,56,58,60,62,64,66,68,70,72,74,76,78,80,82,84,86,88,90,92,94,96,98,100,102,104,106,108,110,112,114,116,118,120,122,124,126,-1,-1,-1,-1,-1,-1,-1,-1,-1,-1,-1,-1,-1,-1,-1,-1,-1,-1,-1,-1,-1,-1,-1,-1,-1,-1,-1,-1,-1,-1,-1,-1,-1,-1,-1,-1,-1,-1,-1,-1,-1,-1,-1,-1,-1,-1,-1,-1,-1,-1,-1,-1,-1,-1,-1,-1,-1,-1,-1,-1,-1,-1,-1,-1],"split_conditions":[3.6E1,8.7E0,4.4E0,1.2E1,1.4E-1,6.4276543E0,4E0,6.620384E0,6.511498E0,9E-2,7.871654E0,3.9E0,1.61E0,8.7E0,8.45389E0,3.9905796E0,1.81E0,1.98E0,1.81E0,1.2E1,7.5583634E0,4.901776E0,1.2E1,2.28E0,6.2746105E0,3.0643275E-1,8.631615E0,7.103183E0,1.1E-1,4.94E0,4.94E0,4.4E0,6.1E0,9.8E-1,5.6E0,6.5E0,2.09E0,8.45389E0,5.8E0,2.0786268E-1,8.04995E0,3.5150105E-1,1.2E1,4.866187E0,1.2E1,6.9301E4,6.8591E4,3.8537693E0,9.5596E4,1.91E0,1.34E0,1.3094237E1,5.0752723E-1,2.28E0,2.28E0,1.81E0,1.81E0,8.45389E0,8.631615E0,4.8E0,8.845E4,4.8E0,6.0538214E-1,-1.9132927E-1,-2.4726327E-1,-1.8193659E-1,-2.2892891E-1,-1.4276604E-1,-3.2468405E-2,-1.7666826E-1,-5.4911107E-1,-6.404987E-2,-1.8766879E-1,-5.7800716E-1,-1.6279909E-1,2.9515699E-2,2.5497076E-1,-1.0807886E-1,-8.927885E-1,-3.0582234E-1,-3.5426107E-1,-2.730981E-1,-1.5336089E-1,-3.256375E-1,-3.8678274E-1,-3.843345E-1,-4.8241362E-1,-4.4144937E-1,-5.4373527E-1,-3.6931726E-1,-4.1688225E-1,-5.5551594E-1,-4.701738E-1,-7.1350044E-1,-5.788309E-1,5.342172E-1,1.1202118E0,4.8879847E-1,1.0068412E0,6.9908816E-1,4.8413563E-1,5.751013E-1,1.0149077E0,9.941935E-1,1.4727672E0,7.332761E-1,4.3952304E-1,1.2618142E0,1.0886092E0,1.3488927E0,1.6525353E0,3.866646E-1,-1.0920303E-1,1.0973333E0,9.858291E-2,1.1949488E-1,1.1416099E0,-4.2995164E-1,-1.3878821E-1,-4.8033133E-1,7.785825E-1,-5.9316206E-1,-8.0156976E-1,-1.5421402E0,1.7251643E0,-1.8937216E0,-1.2753329E0],"split_indices":[0,7,7,0,6,9,6,9,9,6,10,7,6,7,10,9,6,6,6,0,10,10,0,6,10,3,9,9,6,6,6,7,7,6,7,7,6,10,7,4,9,4,0,10,0,1,1,10,1,6,6,9,3,6,6,6,6,10,9,6,1,6,3,0,0,0,0,0,0,0,0,0,0,0,0,0,0,0,0,0,0,0,0,0,0,0,0,0,0,0,0,0,0,0,0,0,0,0,0,0,0,0,0,0,0,0,0,0,0,0,0,0,0,0,0,0,0,0,0,0,0,0,0,0,0,0,0],"split_type":[0,0,0,0,0,0,0,0,0,0,0,0,0,0,0,0,0,0,0,0,0,0,0,0,0,0,0,0,0,0,0,0,0,0,0,0,0,0,0,0,0,0,0,0,0,0,0,0,0,0,0,0,0,0,0,0,0,0,0,0,0,0,0,0,0,0,0,0,0,0,0,0,0,0,0,0,0,0,0,0,0,0,0,0,0,0,0,0,0,0,0,0,0,0,0,0,0,0,0,0,0,0,0,0,0,0,0,0,0,0,0,0,0,0,0,0,0,0,0,0,0,0,0,0,0,0,0],"sum_hessian":[9.820635E6,6.558987E6,3.261648E6,5.591124E6,9.67863E5,4.82211E5,2.779437E6,2.801323E6,2.789801E6,3.66157E5,6.01706E5,2.72767E5,2.09444E5,2.453166E6,3.26271E5,1.715104E6,1.086219E6,1.662793E6,1.127008E6,9.2511E4,2.73646E5,4.81093E5,1.20613E5,6.5784E4,2.06983E5,7.4348E4,1.35096E5,1.969424E6,4.83742E5,2.74654E5,5.1617E4,5.72186E5,1.142918E6,7.20375E5,3.65844E5,1.163915E6,4.98878E5,7.49085E5,3.77923E5,4.6289E4,4.6222E4,2.18027E5,5.5619E4,1.45987E5,3.35106E5,6.037E4,6.0243E4,5.995E4,5.834E3,1.63548E5,4.3435E4,4.8105E4,2.6243E4,7.8907E4,5.6189E4,1.343843E6,6.25581E5,1.08009E5,3.75733E5,1.00479E5,1.74175E5,1.9957E4,3.166E4,9.6225E4,4.75961E5,8.4951E5,2.93408E5,4.76021E5,2.44354E5,3.42772E5,2.3072E4,8.29215E5,3.347E5,3.2051E4,4.66827E5,5.12666E5,2.36419E5,3.63221E5,1.4702E4,1.7957E4,2.8332E4,3.7282E4,8.94E3,1.37242E5,8.0785E4,2.7763E4,2.7856E4,1.06649E5,3.9338E4,1.67383E5,1.67723E5,2.3475E4,3.6895E4,2.2583E4,3.766E4,3.326E3,5.6624E4,4.227E3,1.607E3,9.6174E4,6.7374E4,1.1993E4,3.1442E4,4.2957E4,5.148E3,1.6823E4,9.42E3,3.397E4,4.4937E4,2.7995E4,2.8194E4,1.113072E6,2.30771E5,5.23417E5,1.02164E5,9.1887E4,1.6122E4,3.20935E5,5.4798E4,9.1765E4,8.714E3,1.1756E5,5.6615E4,1.8004E4,1.953E3,2.8129E4,3.531E3],"tree_param":{"num_deleted":"0","num_feature":"12","num_nodes":"127","size_leaf_vector":"1"}},{"base_weights":[-1.7794684E-3,6.9652224E0,-1.899779E0,4.8817706E0,1.6594263E1,-8.5279455E0,2.373989E0,1.6767737E0,7.842913E0,1.2424075E1,2.0869377E1,-1.6924131E0,-9.681635E0,9.959505E-1,6.6587367E0,9.1274595E-1,4.665317E0,6.0611773E0,9.558099E0,1.08166485E1,1.571266E1,1.9130144E1,2.5936666E1,1.0324532E0,-3.6240826E0,-8.631956E0,-1.517235E1,4.4037395E0,3.3640563E-1,5.567657E0,1.138083E1,4.268792E0,5.9036905E-1,1.0797657E1,3.626873E0,4.3813105E0,8.526642E0,1.0551689E1,5.3410654E0,1.4439837E1,9.289971E0,1.6921598E1,1.0537008E1,1.5772549E1,2.0477621E1,2.25865E1,2.6902569E1,-7.48053E-1,3.8580873E0,-2.968673E0,-9.797508E0,-9.243276E0,-5.4589067E0,-2.1415821E1,-7.5311112E0,4.966667E0,1.8672057E0,-1.4028993E-1,4.2284822E0,4.031554E0,7.163661E0,1.646786E1,9.875134E0,1.10327415E-1,2.608594E-1,-3.4748565E-2,8.3331764E-2,5.8221793E-1,2.8742823E-1,-6.4374834E-2,2.5747663E-1,2.53347E-1,-1.0309556E-2,4.8752865E-1,2.6996583E-1,4.4921288E-1,7.0366704E-1,1.3575913E-2,3.6344868E-1,8.449648E-1,5.691635E-1,3.4644228E-1,6.169185E-1,9.321236E-1,7.257473E-1,7.34516E-1,3.9471033E-1,6.3608927E-1,9.692252E-1,1.0556588E0,6.3950664E-1,1.1588097E0,9.738761E-1,1.3704413E0,1.2327129E0,-1.22611366E-1,1.2865364E-2,2.7314234E-1,-4.3825936E-2,-8.8065706E-2,-1.9346613E-1,-5.167214E-1,4.870836E-2,-3.364832E-1,-4.9069467E-1,-2.9362053E-1,-1.5298867E-1,-8.3648676E-1,-1.1820631E0,-5.15558E-1,-1.0105175E-1,2.6672045E-2,2.5923517E-1,1.2843685E-1,1.1112205E-2,-1.2881355E-1,1.960921E-2,2.3433666E-1,1.51611855E-2,1.7364632E-1,3.4277973E-1,5.008351E-1,3.0226412E-1,4.5688868E-1,1.0245603E0,4.224752E-1,6.276073E-1],"categories":[],"categories_nodes":[],"categories_segments":[],"categories_sizes":[],"default_left":[0,0,0,0,0,0,0,0,0,0,0,0,0,0,0,0,0,0,0,0,0,0,0,0,0,0,0,0,0,0,0,0,0,0,0,0,0,0,0,0,0,0,0,0,0,0,0,0,0,0,0,0,0,0,0,0,0,0,0,0,0,0,0,0,0,0,0,0,0,0,0,0,0,0,0,0,0,0,0,0,0,0,0,0,0,0,0,0,0,0,0,0,0,0,0,0,0,0,0,0,0,0,0,0,0,0,0,0,0,0,0,0,0,0,0,0,0,0,0,0,0,0,0,0,0,0,0],"id":2,"left_children":[1,3,5,7,9,11,13,15,17,19,21,23,25,27,29,31,33,35,37,39,41,43,45,47,49,51,53,55,57,59,61,63,65,67,69,71,73,75,77,79,81,83,85,87,89,91,93,95,97,99,101,103,105,107,109,111,113,115,117,119,121,123,125,-1,-1,-1,-1,-1,-1,-1,-1,-1,-1,-1,-1,-1,-1,-1,-1,-1,-1,-1,-1,-1,-1,-1,-1,-1,-1,-1,-1,-1,-1,-1,-1,-1,-1,-1,-1,-1,-1,-1,-1,-1,-1,-1,-1,-1,-1,-1,-1,-1,-1,-1,-1,-1,-1,-1,-1,-1,-1,-1,-1,-1,-1,-1,-1],"loss_changes":[1.2986661E8,4.218309E7,2.1863869E8,1.6405648E7,6.66796E6,2.3861136E7,2.7707608E7,1.8954882E6,2.745784E6,1.000716E6,1.627208E6,2.299824E6,1.4920352E7,7.980401E6,5.883424E6,7.152787E5,1.0762832E6,1.825214E6,1.918136E6,7.03361E5,3.88767E5,6.21772E5,1.52098E5,9.1190244E5,1.03448775E6,4.215648E6,1.9821456E7,8.22111E5,5.519418E6,2.274128E6,1.64151E6,1.13310875E5,8.344312E5,1.0456975E5,1.0816091E6,8.244385E5,6.83531E5,2.045036E6,8.5321525E5,2.83225E5,6.43968E5,2.08418E5,1.29109E5,4.33724E5,4.79124E5,1.89215E4,4.101E4,1.9050522E5,5.323444E5,2.5133988E5,1.41932E5,2.6136E6,3.48267E5,2.384136E6,2.861863E6,4.55451E5,1.2067472E5,3.4376802E6,5.838795E5,7.45668E5,1.451534E6,1.44339E6,6.31066E5,0E0,0E0,0E0,0E0,0E0,0E0,0E0,0E0,0E0,0E0,0E0,0E0,0E0,0E0,0E0,0E0,0E0,0E0,0E0,0E0,0E0,0E0,0E0,0E0,0E0,0E0,0E0,0E0,0E0,0E0,0E0,0E0,0E0,0E0,0E0,0E0,0E0,0E0,0E0,0E0,0E0,0E0,0E0,0E0,0E0,0E0,0E0,0E0,0E0,0E0,0E0,0E0,0E0,0E0,0E0,0E0,0E0,0E0,0E0,0E0,0E0,0E0,0E0,0E0],"parents":[2147483647,0,0,1,1,2,2,3,3,4,4,5,5,6,6,7,7,8,8,9,9,10,10,11,11,12,12,13,13,14,14,15,15,16,16,17,17,18,18,19,19,20,20,21,21,22,22,23,23,24,24,25,25,26,26,27,27,28,28,29,29,30,30,31,31,32,32,33,33,34,34,35,35,36,36,37,37,38,38,39,39,40,40,41,41,42,42,43,43,44,44,45,45,46,46,47,47,48,48,49,49,50,50,51,51,52,52,53,53,54,54,55,55,56,56,57,57,58,58,59,59,60,60,61,61,62,62],"right_children":[2,4,6,8,10,12,14,16,18,20,22,24,26,28,30,32,34,36,38,40,42,44,46,48,50,52,54,56,58,60,62,64,66,68,70,72,74,76,78,80,82,84,86,88,90,92,94,96,98,100,102,104,106,108,110,112,114,116,118,120,122,124,126,-1,-1,-1,-1,-1,-1,-1,-1,-1,-1,-1,-1,-1,-1,-1,-1,-1,-1,-1,-1,-1,-1,-1,-1,-1,-1,-1,-1,-1,-1,-1,-1,-1,-1,-1,-1,-1,-1,-1,-1,-1,-1,-1,-1,-1,-1,-1,-1,-1,-1,-1,-1,-1,-1,-1,-1,-1,-1,-1,-1,-1,-1,-1,-1],"split_conditions":[1.936E2,8.45389E0,2.25395E2,5.3703294E0,5.6E0,2.007E2,7.846604E0,6.0825424E0,7.729E4,1.0258371E1,1.0693774E1,3.62E0,8.45389E0,4.3E0,1.18899355E1,3.8537693E0,6.2451115E0,6.2746105E0,7.2371793E0,2.5E0,1.908E2,1.808E2,9.62961E0,6.5340776E0,9.941923E0,2.19035E2,8.8E0,9.875E4,7.2371793E0,7.2371793E0,2.33669E2,2.8327959E0,3.8733802E0,1.891E2,6.2746105E0,6.2451115E0,7.2371793E0,6.9933534E0,7.465426E0,9.260185E0,9.941923E0,7.75E0,7.4441E4,9.941923E0,1.47267E5,1.867E2,9.9507E4,4.290491E0,9.941923E0,4.16E0,1.0251226E1,2.05288E2,7.6204934E0,2.05904E2,2.1869E2,3.8537693E0,1.35909E5,3.2046309E0,8.3E0,5.6615615E-1,2.33544E2,8.45389E0,1.4411542E1,1.10327415E-1,2.608594E-1,-3.4748565E-2,8.3331764E-2,5.8221793E-1,2.8742823E-1,-6.4374834E-2,2.5747663E-1,2.53347E-1,-1.0309556E-2,4.8752865E-1,2.6996583E-1,4.4921288E-1,7.0366704E-1,1.3575913E-2,3.6344868E-1,8.449648E-1,5.691635E-1,3.4644228E-1,6.169185E-1,9.321236E-1,7.257473E-1,7.34516E-1,3.9471033E-1,6.3608927E-1,9.692252E-1,1.0556588E0,6.3950664E-1,1.1588097E0,9.738761E-1,1.3704413E0,1.2327129E0,-1.22611366E-1,1.2865364E-2,2.7314234E-1,-4.3825936E-2,-8.8065706E-2,-1.9346613E-1,-5.167214E-1,4.870836E-2,-3.364832E-1,-4.9069467E-1,-2.9362053E-1,-1.5298867E-1,-8.3648676E-1,-1.1820631E0,-5.15558E-1,-1.0105175E-1,2.6672045E-2,2.5923517E-1,1.2843685E-1,1.1112205E-2,-1.2881355E-1,1.960921E-2,2.3433666E-1,1.51611855E-2,1.7364632E-1,3.4277973E-1,5.008351E-1,3.0226412E-1,4.5688868E-1,1.0245603E0,4.224752E-1,6.276073E-1],"split_indices":[8,10,8,9,7,8,9,10,1,11,11,6,10,7,9,10,10,10,10,6,8,8,9,10,10,8,7,1,10,10,8,9,9,8,10,10,10,11,10,10,10,5,1,10,1,8,1,9,10,6,10,8,9,8,8,10,1,9,7,4,8,10,9,0,0,0,0,0,0,0,0,0,0,0,0,0,0,0,0,0,0,0,0,0,0,0,0,0,0,0,0,0,0,0,0,0,0,0,0,0,0,0,0,0,0,0,0,0,0,0,0,0,0,0,0,0,0,0,0,0,0,0,0,0,0,0,0],"split_type":[0,0,0,0,0,0,0,0,0,0,0,0,0,0,0,0,0,0,0,0,0,0,0,0,0,0,0,0,0,0,0,0,0,0,0,0,0,0,0,0,0,0,0,0,0,0,0,0,0,0,0,0,0,0,0,0,0,0,0,0,0,0,0,0,0,0,0,0,0,0,0,0,0,0,0,0,0,0,0,0,0,0,0,0,0,0,0,0,0,0,0,0,0,0,0,0,0,0,0,0,0,0,0,0,0,0,0,0,0,0,0,0,0,0,0,0,0,0,0,0,0,0,0,0,0,0,0],"sum_hessian":[9.820993E6,2.102677E6,7.718316E6,1.728648E6,3.74029E5,3.025728E6,4.692588E6,8.30143E5,8.98505E5,1.8934E5,1.84689E5,4.36933E5,2.588795E6,3.550648E6,1.14194E6,6.61126E5,1.69017E5,4.40705E5,4.578E5,1.2718E5,6.216E4,1.375E5,4.7189E4,1.81253E5,2.5568E5,2.173317E6,4.15478E5,5.7576E5,2.974888E6,9.2761E5,2.1433E5,5.794E4,6.03186E5,2.4475E4,1.44542E5,2.62114E5,1.78591E5,3.70503E5,8.7297E4,3.77E4,8.948E4,5.0388E4,1.1772E4,3.9382E4,9.8118E4,1.0566E4,3.6623E4,1.1119E5,7.0063E4,2.31142E5,2.4538E4,1.822242E6,3.51075E5,2.28651E5,1.86827E5,4.71189E5,1.04571E5,2.650286E6,3.24602E5,4.72677E5,4.54933E5,4.8948E4,1.65382E5,1.8253E4,3.9687E4,2.74893E5,3.28293E5,2.0959E4,3.516E3,3.4191E4,1.10351E5,2.28033E5,3.4081E4,1.28355E5,5.0236E4,2.56391E5,1.14112E5,2.4052E4,6.3245E4,2.0888E4,1.6812E4,5.0426E4,3.9054E4,2.9376E4,2.1012E4,4.576E3,7.196E3,2.1352E4,1.803E4,9.0624E4,7.494E3,8.876E3,1.69E3,2.9883E4,6.74E3,4.1256E4,6.9934E4,5.2327E4,1.7736E4,9.8757E4,1.32385E5,2.3373E4,1.165E3,3.37138E5,1.485104E6,2.9946E5,5.1615E4,7.3626E4,1.55025E5,1.24175E5,6.2652E4,2.2088E4,4.49101E5,7.3307E4,3.1264E4,4.75401E5,2.174885E6,2.90668E5,3.3934E4,3.94619E5,7.8058E4,1.2811E5,3.26823E5,1.7347E4,3.1601E4,1.07916E5,5.7466E4],"tree_param":{"num_deleted":"0","num_feature":"12","num_nodes":"127","size_leaf_vector":"1"}},{"base_weights":[2.2302074E-3,-3.1599078E0,6.359801E0,1.9480981E-1,-4.2836633E0,2.099204E1,2.947698E0,-1.876996E0,2.2667992E0,-7.6946077E0,-2.1251667E0,1.5459448E1,3.891868E1,-1.0206197E1,1.0849385E1,-2.516592E0,2.110764E-1,8.2584023E-1,6.95587E0,-4.3854575E0,-8.365096E0,-3.353607E0,-8.887756E-1,1.167053E1,2.0517979E1,3.131997E1,4.712141E1,5.2019553E0,-1.2809968E1,8.727467E0,1.7874205E1,-2.9253807E0,-1.9617379E0,-1.1432419E0,2.587471E0,-1.3111238E-1,2.124149E0,4.4221587E0,1.0478218E1,-2.9243839E0,-5.290747E0,-7.5983353E0,-1.1221412E1,-3.7062778E0,-2.1937866E0,-1.6425145E0,1.580616E0,6.0302763E0,1.3414513E1,1.6768808E1,2.269495E1,2.7571003E1,4.1903576E1,3.8866444E1,5.6341038E1,8.754937E0,2.9216123E-1,-1.5757516E1,-7.4478545E0,6.9103217E0,1.9454233E1,1.5842611E1,2.291296E1,-1.7575175E-1,-1.3694991E-1,-1.2131387E-1,-5.895245E-2,-7.823663E-2,2.1366933E-3,6.82458E-2,2.0283651E-1,-7.788626E-2,1.601318E-2,1.6336897E-1,6.4149186E-2,1.699255E-1,3.6478814E-1,6.124982E-1,1.7132245E-1,-1.20480336E-1,-1.9477542E-1,-2.3313887E-1,-3.842776E-1,-3.11144E-1,-4.0070233E-1,-7.688989E-1,-4.228773E-1,-2.2481416E-1,-1.7821114E-1,-1.3134979E-1,-6.52211E-2,-1.2999102E-1,-6.657602E-2,1.9250947E-1,4.09274E-2,2.039671E-1,3.6013582E-1,5.814342E-1,8.2352984E-1,6.1884886E-1,9.818098E-1,8.03325E-1,1.1919498E0,1.5860494E0,1.2260288E0,2.1591034E0,1.5549716E0,1.7870626E0,2.1748493E0,2.9984348E0,2.2464437E0,2.8725395E-1,6.550612E-1,4.601436E-2,-5.04967E-1,-6.539362E-1,-1.2969474E0,-1.5424244E-1,-4.9234006E-1,4.0117154E-1,1.3958237E-1,8.2721084E-1,1.1051191E0,7.379724E-1,1.0191654E0,9.5940965E-1,1.5890484E0],"categories":[],"categories_nodes":[],"categories_segments":[],"categories_sizes":[],"default_left":[0,0,0,0,0,0,0,0,0,0,0,0,0,0,0,0,0,0,0,0,0,0,0,0,0,0,0,0,0,0,0,0,0,0,0,0,0,0,0,0,0,0,0,0,0,0,0,0,0,0,0,0,0,0,0,0,0,0,0,0,0,0,0,0,0,0,0,0,0,0,0,0,0,0,0,0,0,0,0,0,0,0,0,0,0,0,0,0,0,0,0,0,0,0,0,0,0,0,0,0,0,0,0,0,0,0,0,0,0,0,0,0,0,0,0,0,0,0,0,0,0,0,0,0,0,0,0],"id":3,"left_children":[1,3,5,7,9,11,13,15,17,19,21,23,25,27,29,31,33,35,37,39,41,43,45,47,49,51,53,55,57,59,61,63,65,67,69,71,73,75,77,79,81,83,85,87,89,91,93,95,97,99,101,103,105,107,109,111,113,115,117,119,121,123,125,-1,-1,-1,-1,-1,-1,-1,-1,-1,-1,-1,-1,-1,-1,-1,-1,-1,-1,-1,-1,-1,-1,-1,-1,-1,-1,-1,-1,-1,-1,-1,-1,-1,-1,-1,-1,-1,-1,-1,-1,-1,-1,-1,-1,-1,-1,-1,-1,-1,-1,-1,-1,-1,-1,-1,-1,-1,-1,-1,-1,-1,-1,-1,-1],"loss_changes":[1.974676E8,2.472972E7,1.6289723E8,7.065947E6,3.617789E7,6.119069E7,2.7499536E8,1.0991948E6,5.5606105E6,4.225336E6,4.570779E6,9.036008E6,9.067808E6,3.9834384E7,2.4637648E7,1.429015E5,6.211273E5,7.821286E5,1.726437E6,4.243765E5,3.468056E6,6.17454E5,2.7916382E6,2.651464E6,1.64752E6,2.995928E6,5.322992E6,2.5038288E6,1.3424176E7,2.4743648E7,3.924832E6,3.986E4,9.717706E4,6.145153E4,1.2583978E5,2.3336586E5,2.5686862E5,3.3095375E5,1.011156E6,6.1354875E4,2.97887E5,7.13784E5,3.849872E6,1.29891E5,1.3561112E5,3.4210425E5,6.066347E5,1.455975E5,1.12352E6,9.33824E5,9.68236E5,7.05368E5,2.71548E5,5.32712E5,1.365608E6,1.0892635E6,3.9334316E5,1.4948032E7,3.153385E6,4.976648E6,1.416736E6,1.343712E6,3.63864E6,0E0,0E0,0E0,0E0,0E0,0E0,0E0,0E0,0E0,0E0,0E0,0E0,0E0,0E0,0E0,0E0,0E0,0E0,0E0,0E0,0E0,0E0,0E0,0E0,0E0,0E0,0E0,0E0,0E0,0E0,0E0,0E0,0E0,0E0,0E0,0E0,0E0,0E0,0E0,0E0,0E0,0E0,0E0,0E0,0E0,0E0,0E0,0E0,0E0,0E0,0E0,0E0,0E0,0E0,0E0,0E0,0E0,0E0,0E0,0E0,0E0,0E0,0E0,0E0],"parents":[2147483647,0,0,1,1,2,2,3,3,4,4,5,5,6,6,7,7,8,8,9,9,10,10,11,11,12,12,13,13,14,14,15,15,16,16,17,17,18,18,19,19,20,20,21,21,22,22,23,23,24,24,25,25,26,26,27,27,28,28,29,29,30,30,31,31,32,32,33,33,34,34,35,35,36,36,37,37,38,38,39,39,40,40,41,41,42,42,43,43,44,44,45,45,46,46,47,47,48,48,49,49,50,50,51,51,52,52,53,53,54,54,55,55,56,56,57,57,58,58,59,59,60,60,61,61,62,62],"right_children":[2,4,6,8,10,12,14,16,18,20,22,24,26,28,30,32,34,36,38,40,42,44,46,48,50,52,54,56,58,60,62,64,66,68,70,72,74,76,78,80,82,84,86,88,90,92,94,96,98,100,102,104,106,108,110,112,114,116,118,120,122,124,126,-1,-1,-1,-1,-1,-1,-1,-1,-1,-1,-1,-1,-1,-1,-1,-1,-1,-1,-1,-1,-1,-1,-1,-1,-1,-1,-1,-1,-1,-1,-1,-1,-1,-1,-1,-1,-1,-1,-1,-1,-1,-1,-1,-1,-1,-1,-1,-1,-1,-1,-1,-1,-1,-1,-1,-1,-1,-1,-1,-1,-1,-1,-1,-1],"split_conditions":[3.6E1,1.994E2,1.898E2,1.2E1,2.27169E2,7.4198413E0,2.21187E2,7.4198413E0,7.4198413E0,2.05288E2,1.2E1,5.6907225E0,5.7E0,1.981E2,7.2667565E0,5.6907225E0,1.855E2,5.6907225E0,1.845E2,5.02E0,7.4198413E0,7.2667565E0,7.2667565E0,3.9990265E0,2.4329583E-1,1.0258371E1,9.14423E0,2.79E0,9.1E0,2.47284E2,9.828404E0,3.9990265E0,1.855E2,1.0258371E1,9.165727E0,3.9990265E0,6.07E0,1.0258371E1,3.5E0,3.698989E-1,7.570739E0,1.4E-1,8.5E0,2.31679E2,5.449481E-1,4.518548E0,2.33669E2,3.400955E0,3.3636758E-1,5.5E0,2.538468E1,4E0,1.889E2,4.415493E-1,5.269815E-1,6.2189846E0,1.0258371E1,7.4198413E0,4.76E0,8.2E0,4.49E0,5.894654E-1,7.3E0,-1.7575175E-1,-1.3694991E-1,-1.2131387E-1,-5.895245E-2,-7.823663E-2,2.1366933E-3,6.82458E-2,2.0283651E-1,-7.788626E-2,1.601318E-2,1.6336897E-1,6.4149186E-2,1.699255E-1,3.6478814E-1,6.124982E-1,1.7132245E-1,-1.20480336E-1,-1.9477542E-1,-2.3313887E-1,-3.842776E-1,-3.11144E-1,-4.0070233E-1,-7.688989E-1,-4.228773E-1,-2.2481416E-1,-1.7821114E-1,-1.3134979E-1,-6.52211E-2,-1.2999102E-1,-6.657602E-2,1.9250947E-1,4.09274E-2,2.039671E-1,3.6013582E-1,5.814342E-1,8.2352984E-1,6.1884886E-1,9.818098E-1,8.03325E-1,1.1919498E0,1.5860494E0,1.2260288E0,2.1591034E0,1.5549716E0,1.7870626E0,2.1748493E0,2.9984348E0,2.2464437E0,2.8725395E-1,6.550612E-1,4.601436E-2,-5.04967E-1,-6.539362E-1,-1.2969474E0,-1.5424244E-1,-4.9234006E-1,4.0117154E-1,1.3958237E-1,8.2721084E-1,1.1051191E0,7.379724E-1,1.0191654E0,9.5940965E-1,1.5890484E0],"split_indices":[0,8,8,0,8,11,8,11,11,8,0,11,7,8,11,11,8,11,8,6,11,11,11,11,3,11,11,6,7,8,11,11,8,11,11,11,5,11,6,3,11,6,7,8,4,11,8,11,3,7,2,6,8,4,3,11,11,11,5,7,5,4,7,0,0,0,0,0,0,0,0,0,0,0,0,0,0,0,0,0,0,0,0,0,0,0,0,0,0,0,0,0,0,0,0,0,0,0,0,0,0,0,0,0,0,0,0,0,0,0,0,0,0,0,0,0,0,0,0,0,0,0,0,0,0,0,0],"split_type":[0,0,0,0,0,0,0,0,0,0,0,0,0,0,0,0,0,0,0,0,0,0,0,0,0,0,0,0,0,0,0,0,0,0,0,0,0,0,0,0,0,0,0,0,0,0,0,0,0,0,0,0,0,0,0,0,0,0,0,0,0,0,0,0,0,0,0,0,0,0,0,0,0,0,0,0,0,0,0,0,0,0,0,0,0,0,0,0,0,0,0,0,0,0,0,0,0,0,0,0,0,0,0,0,0,0,0,0,0,0,0,0,0,0,0,0,0,0,0,0,0,0,0,0,0,0,0],"sum_hessian":[9.822539E6,6.559811E6,3.262728E6,1.646013E6,4.913798E6,6.16966E5,2.645762E6,8.23043E5,8.2297E5,1.904394E6,3.009404E6,4.71463E5,1.45503E5,9.92895E5,1.652867E6,6.30052E5,1.92991E5,6.29519E5,1.93451E5,3.20853E5,1.583541E6,1.509555E6,1.499849E6,2.69561E5,2.01902E5,7.5535E4,6.9968E4,1.43531E5,8.49364E5,1.269426E6,3.83441E5,3.62774E5,2.67278E5,1.22932E5,7.0059E4,3.62402E5,2.67117E5,1.12517E5,8.0934E4,1.22749E5,1.98104E5,1.248415E6,3.35126E5,1.157567E6,3.51988E5,1.149105E6,3.50744E5,6.3665E4,2.05896E5,7.4172E4,1.2773E5,5.578E4,1.9755E4,3.6918E4,3.305E4,8.3271E4,6.026E4,5.48082E5,3.01282E5,1.085535E6,1.83891E5,2.73266E5,1.10175E5,8.7124E4,2.7565E5,1.67727E5,9.9551E4,9.0698E4,3.2234E4,3.8241E4,3.1818E4,8.7103E4,2.75299E5,1.13227E5,1.5389E5,8.2965E4,2.9552E4,6.4682E4,1.6252E4,8.0226E4,4.2523E4,1.56951E5,4.1153E4,2.89748E5,9.58667E5,1.3384E5,2.01286E5,1.7642E5,9.81147E5,2.36693E5,1.15295E5,2.81765E5,8.6734E5,8.8166E4,2.62578E5,2.39E4,3.9765E4,1.29959E5,7.5937E4,2.93E4,4.4872E4,1.8803E4,1.08927E5,2.3627E4,3.2153E4,1.7662E4,2.093E3,2.2047E4,1.4871E4,2.5075E4,7.975E3,4.9201E4,3.407E4,5.6826E4,3.434E3,4.33918E5,1.14164E5,1.06887E5,1.94395E5,8.54577E5,2.30958E5,8.7617E4,9.6274E4,2.20638E5,5.2628E4,7.7589E4,3.2586E4],"tree_param":{"num_deleted":"0","num_feature":"12","num_nodes":"127","size_leaf_vector":"1"}},{"base_weights":[-4.6564913E-3,-3.0009124E0,6.021149E0,1.8588856E-1,-4.0686502E0,1.9748144E1,2.751681E0,-1.7830656E0,2.1544406E0,-7.3080144E0,-2.017928E0,1.5295277E1,4.0613155E1,-1.0120495E1,1.0206088E1,-2.313857E0,6.7355335E-1,9.643427E-1,7.640427E0,-6.54182E0,-1.1265012E1,-3.1848574E0,-8.435724E-1,8.600363E0,2.143986E1,3.1226076E1,5.12098E1,4.3478484E0,-1.2406375E1,7.7047944E0,1.9023838E1,-3.0359724E0,-1.6355593E0,-1.0487481E0,3.5881562E0,-7.558318E-1,2.5824692E0,4.370394E0,1.2058532E1,-3.9448366E0,-7.213521E0,-1.3398391E1,-8.788629E0,-3.5435057E0,-1.8167812E0,-1.6708435E0,1.9979817E0,7.0020814E0,1.4803359E1,1.6581228E1,2.4107172E1,2.7248013E1,3.9327354E1,4.795261E1,6.2561142E1,7.793256E0,2.7550572E-1,-1.0523666E1,-2.246638E1,6.096844E0,1.7622702E1,1.6727175E1,2.8194313E1,-1.5876393E-1,-1.0589695E-1,-1.02116704E-1,-4.4386048E-2,-1.1029464E-1,-8.13753E-3,2.0697287E-1,6.5876655E-2,-5.8255393E-2,4.3302037E-2,1.1029371E-1,2.6066482E-1,9.2948966E-2,3.1466156E-1,7.078298E-1,1.920002E-1,-2.0853718E-1,1.0599188E-2,-3.2479545E-1,-3.965949E-1,-3.299007E-1,-8.414421E-1,-4.6548867E-1,-2.6516974E-1,-1.8601103E-1,-1.3443118E-1,-1.1261038E-1,-3.0514851E-2,-9.814185E-2,2.9316133E-2,4.110723E-2,1.8462975E-1,7.05723E-1,3.1566828E-1,1.4015458E0,6.278613E-1,6.771022E-1,1.0930524E0,1.1659912E0,2.1026692E0,1.1281618E0,1.6475657E0,2.0638723E0,1.355102E0,2.4590068E0,1.5813477E0,3.280951E0,2.614547E0,2.1840274E-1,6.6026384E-1,8.30265E-2,-6.234738E-1,-2.2073829E-1,-5.7144874E-1,-1.5029922E0,-3.5999313E-1,2.5706118E-1,6.7081016E-1,7.570814E-1,1.0374044E0,7.029032E-1,9.6398467E-1,1.8149649E0,1.2642221E0],"categories":[],"categories_nodes":[],"categories_segments":[],"categories_sizes":[],"default_left":[0,0,0,0,0,0,0,0,0,0,0,0,0,0,0,0,0,0,0,0,0,0,0,0,0,0,0,0,0,0,0,0,0,0,0,0,0,0,0,0,0,0,0,0,0,0,0,0,0,0,0,0,0,0,0,0,0,0,0,0,0,0,0,0,0,0,0,0,0,0,0,0,0,0,0,0,0,0,0,0,0,0,0,0,0,0,0,0,0,0,0,0,0,0,0,0,0,0,0,0,0,0,0,0,0,0,0,0,0,0,0,0,0,0,0,0,0,0,0,0,0,0,0,0,0,0,0],"id":4,"left_children":[1,3,5,7,9,11,13,15,17,19,21,23,25,27,29,31,33,35,37,39,41,43,45,47,49,51,53,55,57,59,61,63,65,67,69,71,73,75,77,79,81,83,85,87,89,91,93,95,97,99,101,103,105,107,109,111,113,115,117,119,121,123,125,-1,-1,-1,-1,-1,-1,-1,-1,-1,-1,-1,-1,-1,-1,-1,-1,-1,-1,-1,-1,-1,-1,-1,-1,-1,-1,-1,-1,-1,-1,-1,-1,-1,-1,-1,-1,-1,-1,-1,-1,-1,-1,-1,-1,-1,-1,-1,-1,-1,-1,-1,-1,-1,-1,-1,-1,-1,-1,-1,-1,-1,-1,-1,-1],"loss_changes":[1.773405E8,2.2322492E7,1.4639949E8,6.381436E6,3.264316E7,5.829875E7,2.5279554E8,1.0733072E6,5.375106E6,5.775224E6,4.123509E6,2.1273144E7,1.0976192E7,3.1954048E7,3.6797024E7,3.315315E5,7.3414825E5,1.8830825E6,2.120254E6,2.783824E6,1.632396E6,7.40532E5,3.525477E6,2.453474E6,3.49408E6,1.884972E6,1.91368E6,1.8495622E6,1.5802384E7,2.0726728E7,7.764416E6,4.19205E4,1.061725E5,9.424674E4,6.7994625E4,2.176742E5,3.4536925E5,4.0726938E5,1.076289E6,3.079625E5,6.53592E5,3.872376E6,2.59703E5,1.8064E5,1.6468312E5,7.655615E5,6.738309E5,9.63829E5,1.506048E6,1.533254E6,2.458712E6,1.048044E6,4.58312E5,8.05768E5,3.59452E5,1.3236325E6,1.066473E6,3.886848E6,1.5247488E7,7.822448E6,1.405672E6,2.008464E6,1.740512E6,0E0,0E0,0E0,0E0,0E0,0E0,0E0,0E0,0E0,0E0,0E0,0E0,0E0,0E0,0E0,0E0,0E0,0E0,0E0,0E0,0E0,0E0,0E0,0E0,0E0,0E0,0E0,0E0,0E0,0E0,0E0,0E0,0E0,0E0,0E0,0E0,0E0,0E0,0E0,0E0,0E0,0E0,0E0,0E0,0E0,0E0,0E0,0E0,0E0,0E0,0E0,0E0,0E0,0E0,0E0,0E0,0E0,0E0,0E0,0E0,0E0,0E0,0E0,0E0],"parents":[2147483647,0,0,1,1,2,2,3,3,4,4,5,5,6,6,7,7,8,8,9,9,10,10,11,11,12,12,13,13,14,14,15,15,16,16,17,17,18,18,19,19,20,20,21,21,22,22,23,23,24,24,25,25,26,26,27,27,28,28,29,29,30,30,31,31,32,32,33,33,34,34,35,35,36,36,37,37,38,38,39,39,40,40,41,41,42,42,43,43,44,44,45,45,46,46,47,47,48,48,49,49,50,50,51,51,52,52,53,53,54,54,55,55,56,56,57,57,58,58,59,59,60,60,61,61,62,62],"right_children":[2,4,6,8,10,12,14,16,18,20,22,24,26,28,30,32,34,36,38,40,42,44,46,48,50,52,54,56,58,60,62,64,66,68,70,72,74,76,78,80,82,84,86,88,90,92,94,96,98,100,102,104,106,108,110,112,114,116,118,120,122,124,126,-1,-1,-1,-1,-1,-1,-1,-1,-1,-1,-1,-1,-1,-1,-1,-1,-1,-1,-1,-1,-1,-1,-1,-1,-1,-1,-1,-1,-1,-1,-1,-1,-1,-1,-1,-1,-1,-1,-1,-1,-1,-1,-1,-1,-1,-1,-1,-1,-1,-1,-1,-1,-1,-1,-1,-1,-1,-1,-1,-1,-1,-1,-1,-1],"split_conditions":[3.6E1,1.994E2,1.908E2,1.2E1,2.27169E2,8.361183E0,2.20472E2,8.45389E0,8.45389E0,8.45389E0,1.2E1,5.3703294E0,5.7E0,1.981E2,8.04995E0,5.3703294E0,1.855E2,5.3703294E0,1.845E2,2.07234E2,8.8E0,7.2371793E0,8.04995E0,6.0825424E0,2.3734064E-1,1.0258371E1,1.127782E1,1.936E2,8.45389E0,2.47284E2,1.18899355E1,6.2746105E0,1.863E2,9.941923E0,1.981E2,6.0825424E0,8.03555E0,9.941923E0,1.961E2,7.871654E0,1.2E1,2.05288E2,2.25395E2,7.5852375E0,1.01953535E1,7.2371793E0,8.45389E0,3.8537693E0,6.2451115E0,6.2746105E0,9.062491E0,4.5E0,1.889E2,6.680805E-1,4.6117732E-1,6.5340776E0,9.941923E0,2.018E2,9.1E0,7.2371793E0,2.51018E2,7.2371793E0,2.33669E2,-1.5876393E-1,-1.0589695E-1,-1.02116704E-1,-4.4386048E-2,-1.1029464E-1,-8.13753E-3,2.0697287E-1,6.5876655E-2,-5.8255393E-2,4.3302037E-2,1.1029371E-1,2.6066482E-1,9.2948966E-2,3.1466156E-1,7.078298E-1,1.920002E-1,-2.0853718E-1,1.0599188E-2,-3.2479545E-1,-3.965949E-1,-3.299007E-1,-8.414421E-1,-4.6548867E-1,-2.6516974E-1,-1.8601103E-1,-1.3443118E-1,-1.1261038E-1,-3.0514851E-2,-9.814185E-2,2.9316133E-2,4.110723E-2,1.8462975E-1,7.05723E-1,3.1566828E-1,1.4015458E0,6.278613E-1,6.771022E-1,1.0930524E0,1.1659912E0,2.1026692E0,1.1281618E0,1.6475657E0,2.0638723E0,1.355102E0,2.4590068E0,1.5813477E0,3.280951E0,2.614547E0,2.1840274E-1,6.6026384E-1,8.30265E-2,-6.234738E-1,-2.2073829E-1,-5.7144874E-1,-1.5029922E0,-3.5999313E-1,2.5706118E-1,6.7081016E-1,7.570814E-1,1.0374044E0,7.029032E-1,9.6398467E-1,1.8149649E0,1.2642221E0],"split_indices":[0,8,8,0,8,10,8,10,10,10,0,9,7,8,9,9,8,9,8,8,7,10,9,10,3,11,11,8,10,8,9,10,8,10,8,10,11,10,8,10,0,8,8,9,9,10,10,10,10,10,11,7,8,3,3,10,10,8,7,10,8,10,8,0,0,0,0,0,0,0,0,0,0,0,0,0,0,0,0,0,0,0,0,0,0,0,0,0,0,0,0,0,0,0,0,0,0,0,0,0,0,0,0,0,0,0,0,0,0,0,0,0,0,0,0,0,0,0,0,0,0,0,0,0,0,0,0],"split_type":[0,0,0,0,0,0,0,0,0,0,0,0,0,0,0,0,0,0,0,0,0,0,0,0,0,0,0,0,0,0,0,0,0,0,0,0,0,0,0,0,0,0,0,0,0,0,0,0,0,0,0,0,0,0,0,0,0,0,0,0,0,0,0,0,0,0,0,0,0,0,0,0,0,0,0,0,0,0,0,0,0,0,0,0,0,0,0,0,0,0,0,0,0,0,0,0,0,0,0,0,0,0,0,0,0,0,0,0,0,0,0,0,0,0,0,0,0,0,0,0,0,0,0,0,0,0,0],"sum_hessian":[9.822314E6,6.560292E6,3.262022E6,1.6464E6,4.913892E6,6.27487E5,2.634535E6,8.23116E5,8.23284E5,1.904888E6,3.009004E6,5.17127E5,1.1036E5,9.66168E5,1.668367E6,6.76868E5,1.46248E5,6.76524E5,1.4676E5,1.59588E6,3.09008E5,1.509273E6,1.499731E6,2.47482E5,2.69645E5,5.8522E4,5.1838E4,1.3182E5,8.34348E5,1.299691E6,3.68676E5,3.27843E5,3.49025E5,9.1927E4,5.4321E4,3.27922E5,3.48602E5,8.4339E4,6.2421E4,3.27948E5,1.267932E6,1.65998E5,1.4301E5,1.195789E6,3.13484E5,1.161562E6,3.38169E5,1.96781E5,5.0701E4,9.5569E4,1.74076E5,3.9252E4,1.927E4,4.0284E4,1.1554E4,7.1406E4,6.0414E4,7.02819E5,1.31529E5,1.118375E6,1.81316E5,2.94839E5,7.3837E4,2.84647E5,4.3196E4,2.26061E5,1.22964E5,3.9863E4,5.2064E4,4.3708E4,1.0613E4,2.61846E5,6.6076E4,3.04951E5,4.3651E4,3.6573E4,4.7766E4,4.9726E4,1.2695E4,3.11044E5,1.6904E4,6.34309E5,6.33623E5,5.5661E4,1.10337E5,1.24406E5,1.8604E4,9.90945E5,2.04844E5,2.30349E5,8.3135E4,1.028511E6,1.33051E5,1.99644E5,1.38525E5,1.7371E4,1.7941E5,7.358E3,4.3343E4,6.0657E4,3.4912E4,1.66762E5,7.314E3,2.1553E4,1.7699E4,1.6617E4,2.653E3,3.7465E4,2.819E3,8.899E3,2.655E3,4.3731E4,2.7675E4,5.4493E4,5.921E3,9.0712E4,6.12107E5,8.7838E4,4.3691E4,9.89223E5,1.29152E5,1.0108E5,8.0236E4,1.44131E5,1.50708E5,1.9503E4,5.4334E4],"tree_param":{"num_deleted":"0","num_feature":"12","num_nodes":"127","size_leaf_vector":"1"}},{"base_weights":[-1.6205319E-3,-2.8496044E0,5.7269864E0,1.4930591E-1,-3.875469E0,1.8947247E1,2.6490917E0,-1.6998084E0,1.9982187E0,-7.0564375E0,-1.9409413E0,1.1496962E1,2.975668E1,-9.072603E0,9.872686E0,-2.3575954E0,-1.09337136E-1,9.111412E-2,4.765935E0,-4.2593546E0,-7.644435E0,-3.0491123E0,-8.2611907E-1,6.513999E0,1.5867074E1,2.5444496E1,4.066179E1,4.6976714E0,-1.1360399E1,7.1315193E0,1.7097496E1,-2.8877318E0,-1.7181269E0,-1.1367165E0,1.6301085E0,-1.1549339E0,1.2292498E0,7.288722E0,2.9977849E0,-2.7677002E0,-4.915847E0,-9.031613E0,-6.6984644E0,-3.391927E0,-1.7554603E0,-1.7346576E0,1.5259857E0,5.1728168E0,1.0200101E1,1.3315454E1,1.9894798E1,2.1019644E1,3.0097912E1,3.2934113E1,4.9184174E1,9.443618E-1,8.496857E0,-1.4310341E1,-6.2600784E0,1.6930061E1,5.661592E0,1.5112577E1,2.6372236E1,-1.5501654E-1,-1.1379885E-1,-1.08215764E-1,-4.696174E-2,-7.931944E-2,-2.6519803E-2,4.0946946E-2,1.5881029E-1,-7.6295815E-2,-6.1296294E-3,2.695839E-2,1.170513E-1,2.8623423E-1,5.622713E-1,1.070702E-1,2.4676982E-1,-1.1575939E-1,-2.127351E-1,-2.2601171E-1,-3.4022E-1,-4.1053158E-1,-7.9466003E-1,-2.8927755E-1,-3.5920283E-1,-2.1557663E-1,-1.6264687E-1,-1.2210981E-1,-5.7479292E-2,-1.924102E-1,-7.523238E-2,4.4122137E-2,2.2232373E-1,1.3663636E-1,3.3183053E-1,5.5942893E-1,2.7668747E-1,5.3182536E-1,7.6564765E-1,1.0688565E0,6.2335676E-1,8.1224203E-1,1.2132851E0,1.3836508E0,1.7959903E0,1.4502078E0,1.8516285E0,2.2685125E0,2.7945065E0,-6.547668E-2,1.6105235E-1,1.6731589E-1,6.249131E-1,-3.878656E-1,-8.085538E-1,-1.09661095E-1,-4.4041982E-1,9.162033E-1,5.920666E-1,9.932279E-2,3.602237E-1,6.168084E-1,8.54619E-1,1.7369477E0,1.1815289E0],"categories":[],"categories_nodes":[],"categories_segments":[],"categories_sizes":[],"default_left":[0,0,0,0,0,0,0,0,0,0,0,0,0,0,0,0,0,0,0,0,0,0,0,0,0,0,0,0,0,0,0,0,0,0,0,0,0,0,0,0,0,0,0,0,0,0,0,0,0,0,0,0,0,0,0,0,0,0,0,0,0,0,0,0,0,0,0,0,0,0,0,0,0,0,0,0,0,0,0,0,0,0,0,0,0,0,0,0,0,0,0,0,0,0,0,0,0,0,0,0,0,0,0,0,0,0,0,0,0,0,0,0,0,0,0,0,0,0,0,0,0,0,0,0,0,0,0],"id":5,"left_children":[1,3,5,7,9,11,13,15,17,19,21,23,25,27,29,31,33,35,37,39,41,43,45,47,49,51,53,55,57,59,61,63,65,67,69,71,73,75,77,79,81,83,85,87,89,91,93,95,97,99,101,103,105,107,109,111,113,115,117,119,121,123,125,-1,-1,-1,-1,-1,-1,-1,-1,-1,-1,-1,-1,-1,-1,-1,-1,-1,-1,-1,-1,-1,-1,-1,-1,-1,-1,-1,-1,-1,-1,-1,-1,-1,-1,-1,-1,-1,-1,-1,-1,-1,-1,-1,-1,-1,-1,-1,-1,-1,-1,-1,-1,-1,-1,-1,-1,-1,-1,-1,-1,-1,-1,-1,-1],"loss_changes":[1.6020974E8,2.0178568E7,1.3268407E8,5.715652E6,3.0074104E7,4.9592176E7,2.2396024E8,8.7446625E5,4.412404E6,3.03964E6,3.754417E6,7.938264E6,1.1814272E7,3.1771672E7,3.2409824E7,2.0045075E5,4.3703534E5,7.018859E5,1.521186E6,3.143655E5,2.003912E6,6.75881E5,3.2374258E6,8.420185E5,1.995724E6,3.706928E6,4.687352E6,2.0488425E6,1.3011776E7,1.70875E7,8.286192E6,4.203925E4,9.3143E4,4.1917312E4,1.1388397E5,9.0483125E4,1.9844856E5,8.695655E5,3.3269088E5,6.600981E4,1.665235E5,3.487836E6,4.02468E5,1.53976E5,1.3283606E5,5.3125975E5,7.933614E5,4.4606975E5,2.09534E5,6.36078E5,8.29016E5,1.430188E6,1.237976E6,6.00404E5,8.6336E5,3.708974E5,1.4715715E6,6.680888E6,3.284313E6,1.097596E6,5.849594E6,2.037848E6,1.81934E6,0E0,0E0,0E0,0E0,0E0,0E0,0E0,0E0,0E0,0E0,0E0,0E0,0E0,0E0,0E0,0E0,0E0,0E0,0E0,0E0,0E0,0E0,0E0,0E0,0E0,0E0,0E0,0E0,0E0,0E0,0E0,0E0,0E0,0E0,0E0,0E0,0E0,0E0,0E0,0E0,0E0,0E0,0E0,0E0,0E0,0E0,0E0,0E0,0E0,0E0,0E0,0E0,0E0,0E0,0E0,0E0,0E0,0E0,0E0,0E0,0E0,0E0,0E0,0E0],"parents":[2147483647,0,0,1,1,2,2,3,3,4,4,5,5,6,6,7,7,8,8,9,9,10,10,11,11,12,12,13,13,14,14,15,15,16,16,17,17,18,18,19,19,20,20,21,21,22,22,23,23,24,24,25,25,26,26,27,27,28,28,29,29,30,30,31,31,32,32,33,33,34,34,35,35,36,36,37,37,38,38,39,39,40,40,41,41,42,42,43,43,44,44,45,45,46,46,47,47,48,48,49,49,50,50,51,51,52,52,53,53,54,54,55,55,56,56,57,57,58,58,59,59,60,60,61,61,62,62],"right_children":[2,4,6,8,10,12,14,16,18,20,22,24,26,28,30,32,34,36,38,40,42,44,46,48,50,52,54,56,58,60,62,64,66,68,70,72,74,76,78,80,82,84,86,88,90,92,94,96,98,100,102,104,106,108,110,112,114,116,118,120,122,124,126,-1,-1,-1,-1,-1,-1,-1,-1,-1,-1,-1,-1,-1,-1,-1,-1,-1,-1,-1,-1,-1,-1,-1,-1,-1,-1,-1,-1,-1,-1,-1,-1,-1,-1,-1,-1,-1,-1,-1,-1,-1,-1,-1,-1,-1,-1,-1,-1,-1,-1,-1,-1,-1,-1,-1,-1,-1,-1,-1,-1,-1,-1,-1,-1],"split_conditions":[3.6E1,1.997E2,1.898E2,1.2E1,2.2675E2,6.5313025E0,2.21898E2,7.315795E0,6.511498E0,2.05904E2,1.2E1,4.6593704E0,9.31726E0,1.981E2,7.525075E0,5.2754645E0,1.855E2,4.6593704E0,6.07E0,2.019E2,8.8E0,8.226268E0,7.525075E0,8.845E4,8.845E4,5.7E0,5.7E0,5.3E0,9.1E0,4.2E0,1.1688946E1,9.1806E4,1.863E2,9.20455E0,9.62961E0,8.845E4,8.845E4,9.31726E0,9.20455E0,1.00047E5,8.318523E0,9.31726E0,1.8568537E-1,2.31221E2,3.5802808E-1,2.499187E0,1.1688946E1,3.2461362E0,1.855E2,5.6E0,1.855E2,2.7885285E-1,8.136195E0,1.764E2,1.1468422E1,5.1E0,5.489009E0,2.019E2,4.81E0,4.1325843E-1,3.9905796E0,2.6035503E-1,2.33544E2,-1.5501654E-1,-1.1379885E-1,-1.08215764E-1,-4.696174E-2,-7.931944E-2,-2.6519803E-2,4.0946946E-2,1.5881029E-1,-7.6295815E-2,-6.1296294E-3,2.695839E-2,1.170513E-1,2.8623423E-1,5.622713E-1,1.070702E-1,2.4676982E-1,-1.1575939E-1,-2.127351E-1,-2.2601171E-1,-3.4022E-1,-4.1053158E-1,-7.9466003E-1,-2.8927755E-1,-3.5920283E-1,-2.1557663E-1,-1.6264687E-1,-1.2210981E-1,-5.7479292E-2,-1.924102E-1,-7.523238E-2,4.4122137E-2,2.2232373E-1,1.3663636E-1,3.3183053E-1,5.5942893E-1,2.7668747E-1,5.3182536E-1,7.6564765E-1,1.0688565E0,6.2335676E-1,8.1224203E-1,1.2132851E0,1.3836508E0,1.7959903E0,1.4502078E0,1.8516285E0,2.2685125E0,2.7945065E0,-6.547668E-2,1.6105235E-1,1.6731589E-1,6.249131E-1,-3.878656E-1,-8.085538E-1,-1.09661095E-1,-4.4041982E-1,9.162033E-1,5.920666E-1,9.932279E-2,3.602237E-1,6.168084E-1,8.54619E-1,1.7369477E0,1.1815289E0],"split_indices":[0,8,8,0,8,9,8,9,9,8,0,9,9,8,9,9,8,9,5,8,7,9,9,1,1,7,7,7,7,7,9,1,8,9,9,1,1,9,9,1,9,9,4,8,4,9,9,9,8,7,8,3,9,8,9,7,9,8,5,3,9,4,8,0,0,0,0,0,0,0,0,0,0,0,0,0,0,0,0,0,0,0,0,0,0,0,0,0,0,0,0,0,0,0,0,0,0,0,0,0,0,0,0,0,0,0,0,0,0,0,0,0,0,0,0,0,0,0,0,0,0,0,0,0,0,0,0],"split_type":[0,0,0,0,0,0,0,0,0,0,0,0,0,0,0,0,0,0,0,0,0,0,0,0,0,0,0,0,0,0,0,0,0,0,0,0,0,0,0,0,0,0,0,0,0,0,0,0,0,0,0,0,0,0,0,0,0,0,0,0,0,0,0,0,0,0,0,0,0,0,0,0,0,0,0,0,0,0,0,0,0,0,0,0,0,0,0,0,0,0,0,0,0,0,0,0,0,0,0,0,0,0,0,0,0,0,0,0,0,0,0,0,0,0,0,0,0,0,0,0,0,0,0,0,0,0,0],"sum_hessian":[9.819792E6,6.558985E6,3.260807E6,1.671803E6,4.887182E6,6.158E5,2.645007E6,8.35856E5,8.35947E5,1.848185E6,3.038997E6,3.64544E5,2.51256E5,1.008507E6,1.6365E6,5.91304E5,2.44552E5,4.94921E5,3.41026E5,3.21036E5,1.527149E6,1.524044E6,1.514953E6,1.7033E5,1.94214E5,1.80059E5,7.1197E4,1.43682E5,8.64825E5,1.186378E6,4.50122E5,3.23287E5,2.68017E5,1.53745E5,9.0807E4,2.3626E5,2.58661E5,1.40524E5,2.00502E5,9.8113E4,2.22923E5,6.19176E5,9.07973E5,1.204779E6,3.19265E5,1.09283E6,4.22123E5,1.24891E5,4.5439E4,1.18896E5,7.5318E4,9.2299E4,8.776E4,3.7342E4,3.3855E4,7.2278E4,7.1404E4,5.47917E5,3.16908E5,1.54757E5,1.031621E6,3.70774E5,7.9348E4,2.39909E5,8.3378E4,1.70401E5,9.7616E4,8.8275E4,6.547E4,5.956E4,3.1247E4,1.73802E5,6.2458E4,1.59599E5,9.9062E4,1.00715E5,3.9809E4,1.39048E5,6.1454E4,7.5224E4,2.2889E4,1.84316E5,3.8607E4,5.53011E5,6.6165E4,3.15273E5,5.927E5,1.58179E5,1.0466E6,1.49645E5,1.6962E5,1.07255E5,9.85575E5,3.45903E5,7.622E4,4.683E4,7.8061E4,3.7495E4,7.944E3,5.0788E4,6.8108E4,6.2786E4,1.2532E4,3.7356E4,5.4943E4,6.1959E4,2.5801E4,1.9067E4,1.8275E4,2.1586E4,1.2269E4,3.6321E4,3.5957E4,3.122E4,4.0184E4,1.21175E5,4.26742E5,1.22081E5,1.94827E5,1.21477E5,3.328E4,3.05034E5,7.26587E5,1.5434E5,2.16434E5,1.9581E4,5.9767E4],"tree_param":{"num_deleted":"0","num_feature":"12","num_nodes":"127","size_leaf_vector":"1"}},{"base_weights":[2.9512565E-4,-2.7053468E0,5.4403973E0,2.0240867E-1,-3.6606684E0,1.7840649E1,2.4826503E0,-1.5987288E0,2.0046942E0,-6.5072265E0,-1.790115E0,1.3744582E1,3.6979256E1,-8.859615E0,9.384839E0,-2.0870626E0,6.519906E-1,8.930392E-1,7.135885E0,-5.8155365E0,-1.0075282E1,-2.8499312E0,-7.2354937E-1,7.840486E0,1.8954035E1,4.2274113E1,2.5246368E1,3.9391837E0,-1.0811705E1,7.282628E0,1.7403065E1,-2.7657537E0,-1.4756901E0,-8.926537E-1,3.5636387E0,-6.4488876E-1,2.274181E0,3.9475996E0,1.1605942E1,-3.4408376E0,-6.4525905E0,-2.2838097E0,-1.0759931E1,-3.1877391E0,-1.5586776E0,-1.4483073E0,2.0247376E0,7.639528E0,2.788283E1,1.6826788E1,2.4414675E1,4.527955E1,2.945815E1,1.6841682E1,3.1757746E1,6.522321E0,-5.3097063E-1,-8.901174E0,-1.8575197E1,5.6765075E0,1.576512E1,2.0349627E1,1.4949298E1,-9.1295846E-2,-1.423893E-1,-9.417341E-2,-4.6918646E-2,-1.0050465E-1,-1.6244472E-3,2.034004E-1,8.405697E-2,6.352963E-2,-4.0640417E-2,9.7230814E-2,2.4025898E-1,7.901245E-2,2.879189E-1,6.672934E-1,2.5427797E-1,-1.8326198E-1,3.38845E-2,-2.5756225E-1,-3.455382E-1,5.1350135E-2,-1.707513E-1,-4.1425896E-1,-6.895503E-1,-1.9115762E-1,-1.5410732E-1,-1.576538E-2,-9.120926E-2,-8.146729E-2,3.2802937E-3,2.3132864E-1,6.288632E-2,7.023104E-1,3.535876E-1,-1.8807633E-1,1.5857452E0,5.847415E-1,9.080327E-1,1.4441361E0,7.797856E-1,2.088897E0,2.7867136E0,1.8803152E0,1.112722E0,1.0236982E0,2.890065E-1,1.6731217E0,8.905597E-1,1.7912343E-1,5.572955E-1,4.3654855E-2,-6.813692E-1,-1.6505384E-1,-4.912916E-1,-3.4437963E-1,-1.2555021E0,7.194669E-2,3.198168E-1,8.7454766E-1,5.193277E-1,8.826384E-1,1.2570672E0,9.347103E-1,6.58682E-1],"categories":[],"categories_nodes":[],"categories_segments":[],"categories_sizes":[],"default_left":[0,0,0,0,0,0,0,0,0,0,0,0,0,0,0,0,0,0,0,0,0,0,0,0,0,0,0,0,0,0,0,0,0,0,0,0,0,0,0,0,0,0,0,0,0,0,0,0,0,0,0,0,0,0,0,0,0,0,0,0,0,0,0,0,0,0,0,0,0,0,0,0,0,0,0,0,0,0,0,0,0,0,0,0,0,0,0,0,0,0,0,0,0,0,0,0,0,0,0,0,0,0,0,0,0,0,0,0,0,0,0,0,0,0,0,0,0,0,0,0,0,0,0,0,0,0,0],"id":6,"left_children":[1,3,5,7,9,11,13,15,17,19,21,23,25,27,29,31,33,35,37,39,41,43,45,47,49,51,53,55,57,59,61,63,65,67,69,71,73,75,77,79,81,83,85,87,89,91,93,95,97,99,101,103,105,107,109,111,113,115,117,119,121,123,125,-1,-1,-1,-1,-1,-1,-1,-1,-1,-1,-1,-1,-1,-1,-1,-1,-1,-1,-1,-1,-1,-1,-1,-1,-1,-1,-1,-1,-1,-1,-1,-1,-1,-1,-1,-1,-1,-1,-1,-1,-1,-1,-1,-1,-1,-1,-1,-1,-1,-1,-1,-1,-1,-1,-1,-1,-1,-1,-1,-1,-1,-1,-1,-1],"loss_changes":[1.4457522E8,1.8222172E7,1.1965956E8,5.2659895E6,2.6290996E7,4.925555E7,2.0622384E8,8.917776E5,4.62518E6,4.83224E6,3.368054E6,1.5918384E7,6.880224E6,2.4898768E7,2.7604112E7,2.766375E5,6.505879E5,1.4156372E6,2.0577315E6,2.48108E6,1.695966E6,6.51907E5,2.958057E6,9.76922E5,3.193472E6,2.9384E6,1.88456E6,1.5228711E6,1.2825224E7,1.7676648E7,2.459192E6,2.435425E4,7.6850625E4,9.0847E4,4.7600812E4,1.0142753E5,2.928785E5,3.6126925E5,6.8188E5,3.2062075E5,7.70996E5,9.618889E4,2.19212E6,7.947E4,1.0230994E5,3.2208825E5,6.1845975E5,8.73636E5,2.9212188E5,1.3543E6,3.036768E6,2.260872E6,8.50329E5,6.04129E5,4.60818E5,1.1360902E6,8.8818275E5,3.593224E6,1.3042444E7,3.327656E6,1.917212E6,1.996896E6,1.234E6,0E0,0E0,0E0,0E0,0E0,0E0,0E0,0E0,0E0,0E0,0E0,0E0,0E0,0E0,0E0,0E0,0E0,0E0,0E0,0E0,0E0,0E0,0E0,0E0,0E0,0E0,0E0,0E0,0E0,0E0,0E0,0E0,0E0,0E0,0E0,0E0,0E0,0E0,0E0,0E0,0E0,0E0,0E0,0E0,0E0,0E0,0E0,0E0,0E0,0E0,0E0,0E0,0E0,0E0,0E0,0E0,0E0,0E0,0E0,0E0,0E0,0E0,0E0,0E0],"parents":[2147483647,0,0,1,1,2,2,3,3,4,4,5,5,6,6,7,7,8,8,9,9,10,10,11,11,12,12,13,13,14,14,15,15,16,16,17,17,18,18,19,19,20,20,21,21,22,22,23,23,24,24,25,25,26,26,27,27,28,28,29,29,30,30,31,31,32,32,33,33,34,34,35,35,36,36,37,37,38,38,39,39,40,40,41,41,42,42,43,43,44,44,45,45,46,46,47,47,48,48,49,49,50,50,51,51,52,52,53,53,54,54,55,55,56,56,57,57,58,58,59,59,60,60,61,61,62,62],"right_children":[2,4,6,8,10,12,14,16,18,20,22,24,26,28,30,32,34,36,38,40,42,44,46,48,50,52,54,56,58,60,62,64,66,68,70,72,74,76,78,80,82,84,86,88,90,92,94,96,98,100,102,104,106,108,110,112,114,116,118,120,122,124,126,-1,-1,-1,-1,-1,-1,-1,-1,-1,-1,-1,-1,-1,-1,-1,-1,-1,-1,-1,-1,-1,-1,-1,-1,-1,-1,-1,-1,-1,-1,-1,-1,-1,-1,-1,-1,-1,-1,-1,-1,-1,-1,-1,-1,-1,-1,-1,-1,-1,-1,-1,-1,-1,-1,-1,-1,-1,-1,-1,-1,-1,-1,-1,-1],"split_conditions":[3.6E1,1.993E2,1.908E2,1.2E1,2.27223E2,8.361183E0,2.21898E2,8.45389E0,8.45389E0,8.45389E0,1.2E1,5.765325E0,3.78E0,1.981E2,7.2371793E0,5.765325E0,1.863E2,5.765325E0,1.845E2,2.07234E2,2.019E2,7.2371793E0,7.2371793E0,9.062491E0,6.9933534E0,1.871E2,9.941923E0,2.98E0,7.9078407E0,2.46626E2,2.733282E-1,3.8537693E0,8.8878E4,9.941923E0,3.5E0,3.8537693E0,8.03555E0,9.941923E0,3.07E0,7.871654E0,1.4E-1,6.102E4,2.2E-1,2.31679E2,3.6E0,5.6946886E-1,2.33456E2,3.8537693E0,1.0989872E-1,6.0825424E0,7.2371793E0,1.0693774E1,7.5625E4,8.60226E0,1.47267E5,6.5340776E0,9.941923E0,4.81E0,5.13E0,2.28524E2,3.6714712E-1,5.32478E-1,2.33544E2,-9.1295846E-2,-1.423893E-1,-9.417341E-2,-4.6918646E-2,-1.0050465E-1,-1.6244472E-3,2.034004E-1,8.405697E-2,6.352963E-2,-4.0640417E-2,9.7230814E-2,2.4025898E-1,7.901245E-2,2.879189E-1,6.672934E-1,2.5427797E-1,-1.8326198E-1,3.38845E-2,-2.5756225E-1,-3.455382E-1,5.1350135E-2,-1.707513E-1,-4.1425896E-1,-6.895503E-1,-1.9115762E-1,-1.5410732E-1,-1.576538E-2,-9.120926E-2,-8.146729E-2,3.2802937E-3,2.3132864E-1,6.288632E-2,7.023104E-1,3.535876E-1,-1.8807633E-1,1.5857452E0,5.847415E-1,9.080327E-1,1.4441361E0,7.797856E-1,2.088897E0,2.7867136E0,1.8803152E0,1.112722E0,1.0236982E0,2.890065E-1,1.6731217E0,8.905597E-1,1.7912343E-1,5.572955E-1,4.3654855E-2,-6.813692E-1,-1.6505384E-1,-4.912916E-1,-3.4437963E-1,-1.2555021E0,7.194669E-2,3.198168E-1,8.7454766E-1,5.193277E-1,8.826384E-1,1.2570672E0,9.347103E-1,6.58682E-1],"split_indices":[0,8,8,0,8,10,8,10,10,10,0,10,6,8,10,10,8,10,8,8,8,10,10,11,11,8,10,6,10,8,3,10,1,10,6,10,11,10,6,10,6,1,6,8,5,4,8,10,4,10,10,11,1,10,1,10,10,5,5,8,3,4,8,0,0,0,0,0,0,0,0,0,0,0,0,0,0,0,0,0,0,0,0,0,0,0,0,0,0,0,0,0,0,0,0,0,0,0,0,0,0,0,0,0,0,0,0,0,0,0,0,0,0,0,0,0,0,0,0,0,0,0,0,0,0,0,0],"split_type":[0,0,0,0,0,0,0,0,0,0,0,0,0,0,0,0,0,0,0,0,0,0,0,0,0,0,0,0,0,0,0,0,0,0,0,0,0,0,0,0,0,0,0,0,0,0,0,0,0,0,0,0,0,0,0,0,0,0,0,0,0,0,0,0,0,0,0,0,0,0,0,0,0,0,0,0,0,0,0,0,0,0,0,0,0,0,0,0,0,0,0,0,0,0,0,0,0,0,0,0,0,0,0,0,0,0,0,0,0,0,0,0,0,0,0,0,0,0,0,0,0,0,0,0,0,0,0],"sum_hessian":[9.822371E6,6.559831E6,3.26254E6,1.622217E6,4.937614E6,6.28321E5,2.634219E6,8.11367E5,8.1085E5,1.957992E6,2.979622E6,5.17555E5,1.10766E5,9.9657E5,1.637649E6,6.66712E5,1.44655E5,6.66464E5,1.44386E5,1.640059E6,3.17933E5,1.494539E6,1.485083E6,2.42604E5,2.74951E5,7.6321E4,3.4445E4,1.31883E5,8.64687E5,1.297479E6,3.4017E5,3.15959E5,3.50753E5,9.4515E4,5.014E4,3.15334E5,3.5113E5,8.4277E4,6.0109E4,3.46911E5,1.293148E6,2.5681E4,2.92252E5,1.184625E6,3.09914E5,1.175175E6,3.09908E5,2.40197E5,2.407E3,1.97872E5,7.7079E4,6.1821E4,1.45E4,1.5038E4,1.9407E4,8.3583E4,4.83E4,6.93921E5,1.70766E5,1.09092E6,2.06559E5,1.54561E5,1.85609E5,2.5366E4,2.90593E5,1.99413E5,1.5134E5,4.1109E4,5.3406E4,3.9544E4,1.0596E4,2.5415E4,2.89919E5,3.10678E5,4.0452E4,3.6526E4,4.7751E4,4.7447E4,1.2662E4,3.28986E5,1.7925E4,3.36735E5,9.56413E5,6.54E3,1.9141E4,1.60893E5,1.31359E5,1.68803E5,1.015822E6,5.4534E4,2.5538E5,1.049654E6,1.25521E5,7.0558E4,2.3935E5,1.9552E4,2.20645E5,2.6E2,2.147E3,4.0822E4,1.5705E5,5.1158E4,2.5921E4,4.6314E4,1.5507E4,6.802E3,7.698E3,1.132E4,3.718E3,1.7292E4,2.115E3,5.1096E4,3.2487E4,4.3624E4,4.676E3,9.834E4,5.95581E5,6.124E4,1.09526E5,1.58405E5,9.32515E5,1.56379E5,5.018E4,9.8902E4,5.5659E4,5.9697E4,1.25912E5],"tree_param":{"num_deleted":"0","num_feature":"12","num_nodes":"127","size_leaf_vector":"1"}},{"base_weights":[1.1971686E-3,-2.5707667E0,5.1739964E0,1.3765901E-1,-3.4968712E0,1.7099901E1,2.3957977E0,-1.533223E0,1.808623E0,-6.296215E0,-1.7022744E0,1.3170376E1,3.545497E1,-8.331957E0,8.839087E0,-1.9959593E0,6.041167E-1,7.841098E-1,6.5404463E0,-5.6154118E0,-9.817512E0,-2.7060342E0,-6.9208676E-1,7.293094E0,1.856272E1,2.7162529E1,4.450171E1,4.862371E0,-1.0349521E1,6.5034704E0,1.6195171E1,-2.6115937E0,-1.3832173E0,-8.9610696E-1,3.0547695E0,-7.6944566E-1,2.139959E0,1.0557502E1,3.6821792E0,-3.5233111E0,-6.1529593E0,-1.2013012E1,-7.5465546E0,-3.0984628E0,-1.6923041E0,-1.3948593E0,1.9440407E0,5.892507E0,1.2704529E1,1.4970603E1,2.199673E1,2.3378546E1,3.4827606E1,4.1748196E1,5.4199615E1,6.038037E-1,7.0794005E0,-8.691519E0,-1.9205645E1,1.5487306E1,5.1702876E0,1.4269313E1,2.4708307E1,-1.4200786E-1,-1.0385311E-1,-8.7132476E-2,-3.7414122E-2,-9.680503E-2,-5.007487E-3,1.8432738E-1,4.5271166E-2,-5.884665E-2,1.9822342E-2,6.898026E-2,1.6312788E-1,3.069758E-1,6.054274E-1,1.18841365E-1,2.9622263E-1,-1.8547921E-1,-5.5034338E-3,-3.5673267E-1,-2.8289658E-1,-3.3095804E-1,-7.670366E-1,-4.1501555E-1,-2.3780683E-1,-2.0583378E-1,-1.4935891E-1,-1.0890471E-1,-4.2207595E-2,-8.342261E-2,3.016893E-2,2.714826E-2,1.5952519E-1,6.2452716E-1,2.6297325E-1,1.2689819E0,5.2692056E-1,5.901014E-1,9.7991866E-1,1.2113208E0,6.251631E-1,9.563252E-1,1.4524468E0,1.8880514E0,1.5300821E0,2.1554472E0,1.2535785E0,2.8925064E0,2.4256885E0,-1.6632746E-1,8.510048E-2,5.6725746E-1,1.7692712E-1,-1.3250722E-1,-4.7767994E-1,-1.3200127E0,-2.5782472E-1,8.3102983E-1,5.19193E-1,7.524322E-2,3.306314E-1,5.972279E-1,8.322651E-1,1.6285635E0,1.104719E0],"categories":[],"categories_nodes":[],"categories_segments":[],"categories_sizes":[],"default_left":[0,0,0,0,0,0,0,0,0,0,0,0,0,0,0,0,0,0,0,0,0,0,0,0,0,0,0,0,0,0,0,0,0,0,0,0,0,0,0,0,0,0,0,0,0,0,0,0,0,0,0,0,0,0,0,0,0,0,0,0,0,0,0,0,0,0,0,0,0,0,0,0,0,0,0,0,0,0,0,0,0,0,0,0,0,0,0,0,0,0,0,0,0,0,0,0,0,0,0,0,0,0,0,0,0,0,0,0,0,0,0,0,0,0,0,0,0,0,0,0,0,0,0,0,0,0,0],"id":7,"left_children":[1,3,5,7,9,11,13,15,17,19,21,23,25,27,29,31,33,35,37,39,41,43,45,47,49,51,53,55,57,59,61,63,65,67,69,71,73,75,77,79,81,83,85,87,89,91,93,95,97,99,101,103,105,107,109,111,113,115,117,119,121,123,125,-1,-1,-1,-1,-1,-1,-1,-1,-1,-1,-1,-1,-1,-1,-1,-1,-1,-1,-1,-1,-1,-1,-1,-1,-1,-1,-1,-1,-1,-1,-1,-1,-1,-1,-1,-1,-1,-1,-1,-1,-1,-1,-1,-1,-1,-1,-1,-1,-1,-1,-1,-1,-1,-1,-1,-1,-1,-1,-1,-1,-1,-1,-1,-1],"loss_changes":[1.3065856E8,1.6452872E7,1.080584E8,4.666485E6,2.455594E7,4.444475E7,1.8284101E8,8.265426E5,4.0511835E6,4.577552E6,3.020203E6,1.6085392E7,8.150272E6,2.642308E7,2.8393304E7,2.591435E5,5.468237E5,1.4469654E6,1.707686E6,1.799476E6,1.54236E6,5.94344E5,2.750225E6,1.840591E6,3.2648E6,1.643596E6,1.38536E6,1.242933E6,1.26414E7,1.502332E7,6.529208E6,4.1861E4,7.8573875E4,7.6369266E4,7.668731E4,1.5209033E5,3.1309512E5,4.23629E5,2.5434438E5,2.079645E5,6.18608E5,2.823188E6,3.19811E5,1.22033E5,1.7179262E5,6.407705E5,5.4568025E5,8.057585E5,1.370654E6,1.896824E6,2.864164E6,9.14688E5,2.31108E5,9.17456E5,2.3564E5,1.9455589E5,1.3076395E6,3.7768E6,1.3722532E7,9.37296E5,5.774524E6,1.793816E6,1.509388E6,0E0,0E0,0E0,0E0,0E0,0E0,0E0,0E0,0E0,0E0,0E0,0E0,0E0,0E0,0E0,0E0,0E0,0E0,0E0,0E0,0E0,0E0,0E0,0E0,0E0,0E0,0E0,0E0,0E0,0E0,0E0,0E0,0E0,0E0,0E0,0E0,0E0,0E0,0E0,0E0,0E0,0E0,0E0,0E0,0E0,0E0,0E0,0E0,0E0,0E0,0E0,0E0,0E0,0E0,0E0,0E0,0E0,0E0,0E0,0E0,0E0,0E0,0E0,0E0],"parents":[2147483647,0,0,1,1,2,2,3,3,4,4,5,5,6,6,7,7,8,8,9,9,10,10,11,11,12,12,13,13,14,14,15,15,16,16,17,17,18,18,19,19,20,20,21,21,22,22,23,23,24,24,25,25,26,26,27,27,28,28,29,29,30,30,31,31,32,32,33,33,34,34,35,35,36,36,37,37,38,38,39,39,40,40,41,41,42,42,43,43,44,44,45,45,46,46,47,47,48,48,49,49,50,50,51,51,52,52,53,53,54,54,55,55,56,56,57,57,58,58,59,59,60,60,61,61,62,62],"right_children":[2,4,6,8,10,12,14,16,18,20,22,24,26,28,30,32,34,36,38,40,42,44,46,48,50,52,54,56,58,60,62,64,66,68,70,72,74,76,78,80,82,84,86,88,90,92,94,96,98,100,102,104,106,108,110,112,114,116,118,120,122,124,126,-1,-1,-1,-1,-1,-1,-1,-1,-1,-1,-1,-1,-1,-1,-1,-1,-1,-1,-1,-1,-1,-1,-1,-1,-1,-1,-1,-1,-1,-1,-1,-1,-1,-1,-1,-1,-1,-1,-1,-1,-1,-1,-1,-1,-1,-1,-1,-1,-1,-1,-1,-1,-1,-1,-1,-1,-1,-1,-1,-1,-1,-1,-1,-1],"split_conditions":[3.6E1,1.997E2,1.898E2,1.2E1,2.27223E2,8.361183E0,2.21187E2,8.45389E0,8.45389E0,8.45389E0,1.2E1,5.3703294E0,5.7E0,1.961E2,7.846604E0,5.435731E0,1.855E2,5.2754645E0,6.07E0,2.07603E2,8.5E0,7.525075E0,8.226268E0,6.0825424E0,7.729E4,1.0258371E1,1.127782E1,4.9524846E0,8.45389E0,4.2E0,1.18899355E1,8.845E4,1.863E2,9.941923E0,1.981E2,9.1806E4,8.5577E4,1.845E2,5.6E0,7.871654E0,8.5E0,2.06755E2,2.24806E2,2.499187E0,8.45389E0,7.2371793E0,3.6140668E-1,3.8537693E0,6.2451115E0,6.2746105E0,7.2371793E0,4.5E0,7.38E0,1.47267E5,8.9702E4,3.8851082E0,1.924E2,2.013E2,9.1E0,9.875E4,3.9905796E0,7.2371793E0,2.33544E2,-1.4200786E-1,-1.0385311E-1,-8.7132476E-2,-3.7414122E-2,-9.680503E-2,-5.007487E-3,1.8432738E-1,4.5271166E-2,-5.884665E-2,1.9822342E-2,6.898026E-2,1.6312788E-1,3.069758E-1,6.054274E-1,1.18841365E-1,2.9622263E-1,-1.8547921E-1,-5.5034338E-3,-3.5673267E-1,-2.8289658E-1,-3.3095804E-1,-7.670366E-1,-4.1501555E-1,-2.3780683E-1,-2.0583378E-1,-1.4935891E-1,-1.0890471E-1,-4.2207595E-2,-8.342261E-2,3.016893E-2,2.714826E-2,1.5952519E-1,6.2452716E-1,2.6297325E-1,1.2689819E0,5.2692056E-1,5.901014E-1,9.7991866E-1,1.2113208E0,6.251631E-1,9.563252E-1,1.4524468E0,1.8880514E0,1.5300821E0,2.1554472E0,1.2535785E0,2.8925064E0,2.4256885E0,-1.6632746E-1,8.510048E-2,5.6725746E-1,1.7692712E-1,-1.3250722E-1,-4.7767994E-1,-1.3200127E0,-2.5782472E-1,8.3102983E-1,5.19193E-1,7.524322E-2,3.306314E-1,5.972279E-1,8.322651E-1,1.6285635E0,1.104719E0],"split_indices":[0,8,8,0,8,10,8,10,10,10,0,9,7,8,9,9,8,9,5,8,7,9,9,10,1,11,11,9,10,7,9,1,8,10,8,1,1,8,7,10,7,8,8,9,10,10,4,10,10,10,10,7,5,1,1,10,8,8,7,1,9,10,8,0,0,0,0,0,0,0,0,0,0,0,0,0,0,0,0,0,0,0,0,0,0,0,0,0,0,0,0,0,0,0,0,0,0,0,0,0,0,0,0,0,0,0,0,0,0,0,0,0,0,0,0,0,0,0,0,0,0,0,0,0,0,0,0],"split_type":[0,0,0,0,0,0,0,0,0,0,0,0,0,0,0,0,0,0,0,0,0,0,0,0,0,0,0,0,0,0,0,0,0,0,0,0,0,0,0,0,0,0,0,0,0,0,0,0,0,0,0,0,0,0,0,0,0,0,0,0,0,0,0,0,0,0,0,0,0,0,0,0,0,0,0,0,0,0,0,0,0,0,0,0,0,0,0,0,0,0,0,0,0,0,0,0,0,0,0,0,0,0,0,0,0,0,0,0,0,0,0,0,0,0,0,0,0,0,0,0,0,0,0,0,0,0,0],"sum_hessian":[9.820809E6,6.55941E6,3.261399E6,1.671385E6,4.888025E6,6.16209E5,2.64519E6,8.35713E5,8.35672E5,1.909478E6,2.978547E6,5.07552E5,1.08657E5,9.92585E5,1.652605E6,6.86981E5,1.48732E5,6.8694E5,1.48732E5,1.600116E6,3.09362E5,1.494026E6,1.484521E6,2.42857E5,2.64695E5,5.6694E4,5.1963E4,1.31647E5,8.60938E5,1.254343E6,3.98262E5,3.4268E5,3.44301E5,9.2256E4,5.6476E4,3.2013E5,3.6681E5,6.1831E4,8.6901E4,3.27094E5,1.273022E6,1.57292E5,1.5207E5,1.077074E6,4.16952E5,1.172059E6,3.12462E5,1.92926E5,4.9931E4,1.29372E5,1.35323E5,3.7959E4,1.8735E4,4.0476E4,1.1487E4,4.5072E4,8.6575E4,7.25176E5,1.35762E5,1.62087E5,1.092256E6,3.2479E5,7.3472E4,2.40037E5,1.02643E5,2.19846E5,1.24455E5,3.9996E4,5.226E4,4.3646E4,1.283E4,2.3722E5,8.291E4,2.1869E5,1.4812E5,1.6068E4,4.5763E4,5.4927E4,3.1974E4,3.10167E5,1.6927E4,4.26739E5,8.46283E5,6.0016E4,9.7276E4,1.19727E5,3.2343E4,1.06116E5,9.70958E5,2.65107E5,1.51845E5,1.03091E6,1.41149E5,1.47108E5,1.65354E5,1.6888E4,1.76038E5,7.286E3,4.2645E4,7.6795E4,5.2577E4,1.09584E5,2.5739E4,2.1695E4,1.6264E4,1.1054E4,7.681E3,3.7421E4,3.055E3,6.99E3,4.497E3,9.843E3,3.5229E4,3.9267E4,4.7308E4,9.0558E4,6.34618E5,8.9783E4,4.5979E4,1.32632E5,2.9455E4,3.08434E5,7.83822E5,1.64168E5,1.60622E5,1.8328E4,5.5144E4],"tree_param":{"num_deleted":"0","num_feature":"12","num_nodes":"127","size_leaf_vector":"1"}},{"base_weights":[8.6439226E-4,-2.4421735E0,4.913041E0,1.8373834E-1,-3.305224E0,1.6390284E1,2.303786E0,-1.4475858E0,1.8136468E0,-5.942418E0,-1.6597162E0,1.1957398E1,3.076625E1,-7.4850936E0,8.553195E0,-1.9937378E0,1.5704502E-1,5.9016407E-1,5.3956256E0,-3.070312E0,-6.525702E0,-2.6111598E0,-7.0255E-1,8.948146E0,1.5968782E1,2.460535E1,3.7187702E1,4.988506E0,-9.485404E0,6.869195E0,1.4128672E1,-2.2473261E0,-1.432789E0,-8.7522477E-1,2.1634238E0,-1.2189389E-1,1.6169015E0,3.269369E0,8.462592E0,-1.8634652E0,-3.8197992E0,-5.87834E0,-8.934704E0,-2.8930829E0,-1.6827799E0,-1.3082377E0,1.2833897E0,4.247102E0,1.0395195E1,1.4090465E1,1.929948E1,2.1436794E1,3.3526333E1,3.1068047E1,4.483597E1,8.073394E0,1.9410049E0,-1.2197579E1,-5.2082973E0,1.4903062E1,5.3522873E0,1.2650072E1,1.8377312E1,-1.2834056E-1,-8.401326E-2,-1.02052405E-1,-6.075554E-2,-6.085022E-2,9.860996E-3,5.7813346E-2,1.785721E-1,-6.6110246E-2,1.2828745E-2,3.872561E-2,1.2241715E-1,1.20976344E-1,2.9554248E-1,4.8865804E-1,1.7329895E-1,-7.3123954E-2,-1.5952377E-1,-1.675528E-1,-2.655067E-1,-2.5745133E-1,-3.303409E-1,-6.0483295E-1,-3.3384702E-1,-1.854919E-1,-1.3864124E-1,-7.71048E-2,-2.1234751E-1,-5.585396E-2,-1.4496087E-1,2.4183262E-2,1.460035E-1,1.8355125E-1,4.1839477E-1,4.4468364E-1,7.242665E-1,7.985662E-1,4.8068175E-1,1.0300751E0,5.964299E-1,1.273623E0,9.369117E-1,1.8650999E0,1.4842979E0,1.4116505E0,1.7499485E0,2.353501E0,1.3896506E0,2.8103513E-1,6.9015676E-1,1.7911026E-1,-4.0220752E-2,-4.9821034E-1,-1.034357E0,-3.7621725E-1,-4.7906447E-2,5.957899E-1,8.6282647E-1,3.095424E-1,9.7781934E-2,5.9482914E-1,1.0157632E0,1.3188446E0,7.3350114E-1],"categories":[],"categories_nodes":[],"categories_segments":[],"categories_sizes":[],"default_left":[0,0,0,0,0,0,0,0,0,0,0,0,0,0,0,0,0,0,0,0,0,0,0,0,0,0,0,0,0,0,0,0,0,0,0,0,0,0,0,0,0,0,0,0,0,0,0,0,0,0,0,0,0,0,0,0,0,0,0,0,0,0,0,0,0,0,0,0,0,0,0,0,0,0,0,0,0,0,0,0,0,0,0,0,0,0,0,0,0,0,0,0,0,0,0,0,0,0,0,0,0,0,0,0,0,0,0,0,0,0,0,0,0,0,0,0,0,0,0,0,0,0,0,0,0,0,0],"id":8,"left_children":[1,3,5,7,9,11,13,15,17,19,21,23,25,27,29,31,33,35,37,39,41,43,45,47,49,51,53,55,57,59,61,63,65,67,69,71,73,75,77,79,81,83,85,87,89,91,93,95,97,99,101,103,105,107,109,111,113,115,117,119,121,123,125,-1,-1,-1,-1,-1,-1,-1,-1,-1,-1,-1,-1,-1,-1,-1,-1,-1,-1,-1,-1,-1,-1,-1,-1,-1,-1,-1,-1,-1,-1,-1,-1,-1,-1,-1,-1,-1,-1,-1,-1,-1,-1,-1,-1,-1,-1,-1,-1,-1,-1,-1,-1,-1,-1,-1,-1,-1,-1,-1,-1,-1,-1,-1,-1],"loss_changes":[1.1782735E8,1.486062E7,9.7663144E7,4.3128515E6,2.1416392E7,3.849547E7,1.6254874E8,7.1044625E5,3.555821E6,3.176616E6,2.7675725E6,5.573244E6,5.631424E6,2.583348E7,1.5226768E7,8.60315E4,4.2635316E5,4.4216375E5,1.347094E6,2.895195E5,2.457904E6,3.98886E5,1.8222602E6,1.79455E6,1.237812E6,2.053164E6,3.26128E6,1.3451925E6,1.0350568E7,1.517908E7,2.363096E6,7.545475E4,2.4929031E4,4.9821773E4,9.9166125E4,1.6223519E5,1.7346619E5,2.7385638E5,5.53816E5,6.5248875E4,1.3792475E5,6.5998E5,2.383134E6,1.14815E5,1.2805831E5,3.5305575E5,4.6342006E5,1.473715E5,1.238696E6,1.065374E6,6.8458E5,5.8347E5,2.75002E5,4.306E5,1.178332E6,9.99224E5,3.243382E5,1.0352704E7,3.408306E6,1.390596E6,2.984242E6,1.611632E6,2.879936E6,0E0,0E0,0E0,0E0,0E0,0E0,0E0,0E0,0E0,0E0,0E0,0E0,0E0,0E0,0E0,0E0,0E0,0E0,0E0,0E0,0E0,0E0,0E0,0E0,0E0,0E0,0E0,0E0,0E0,0E0,0E0,0E0,0E0,0E0,0E0,0E0,0E0,0E0,0E0,0E0,0E0,0E0,0E0,0E0,0E0,0E0,0E0,0E0,0E0,0E0,0E0,0E0,0E0,0E0,0E0,0E0,0E0,0E0,0E0,0E0,0E0,0E0,0E0,0E0],"parents":[2147483647,0,0,1,1,2,2,3,3,4,4,5,5,6,6,7,7,8,8,9,9,10,10,11,11,12,12,13,13,14,14,15,15,16,16,17,17,18,18,19,19,20,20,21,21,22,22,23,23,24,24,25,25,26,26,27,27,28,28,29,29,30,30,31,31,32,32,33,33,34,34,35,35,36,36,37,37,38,38,39,39,40,40,41,41,42,42,43,43,44,44,45,45,46,46,47,47,48,48,49,49,50,50,51,51,52,52,53,53,54,54,55,55,56,56,57,57,58,58,59,59,60,60,61,61,62,62],"right_children":[2,4,6,8,10,12,14,16,18,20,22,24,26,28,30,32,34,36,38,40,42,44,46,48,50,52,54,56,58,60,62,64,66,68,70,72,74,76,78,80,82,84,86,88,90,92,94,96,98,100,102,104,106,108,110,112,114,116,118,120,122,124,126,-1,-1,-1,-1,-1,-1,-1,-1,-1,-1,-1,-1,-1,-1,-1,-1,-1,-1,-1,-1,-1,-1,-1,-1,-1,-1,-1,-1,-1,-1,-1,-1,-1,-1,-1,-1,-1,-1,-1,-1,-1,-1,-1,-1,-1,-1,-1,-1,-1,-1,-1,-1,-1,-1,-1,-1,-1,-1,-1,-1,-1,-1,-1,-1],"split_conditions":[3.6E1,1.993E2,1.892E2,1.2E1,2.2675E2,7.4198413E0,2.23046E2,7.2708907E0,7.2708907E0,2.04226E2,1.2E1,5.6907225E0,5.7E0,1.961E2,7.2667565E0,8.845E4,1.863E2,5.6907225E0,1.845E2,4.99E0,7.4198413E0,7.2667565E0,7.2667565E0,3.9990265E0,8.8878E4,1.0258371E1,9.165727E0,2.49E0,8.8E0,4.3E0,5.9240556E-1,1.863E2,5.0966687E0,1.0258371E1,9.165727E0,3.9990265E0,1.829E2,1.0258371E1,3.07E0,1.00047E5,7.2708907E0,1.2E1,8.5E0,2.31221E2,8.3E0,8.2E0,5.449481E-1,1.04338E5,9.0889E4,4E0,1.855E2,4E0,5.45E0,4.415493E-1,1.39769E5,6.9080577E0,8.4907E4,7.4198413E0,2.17605E2,4.46E0,8.2E0,1.61E0,2.33544E2,-1.2834056E-1,-8.401326E-2,-1.02052405E-1,-6.075554E-2,-6.085022E-2,9.860996E-3,5.7813346E-2,1.785721E-1,-6.6110246E-2,1.2828745E-2,3.872561E-2,1.2241715E-1,1.20976344E-1,2.9554248E-1,4.8865804E-1,1.7329895E-1,-7.3123954E-2,-1.5952377E-1,-1.675528E-1,-2.655067E-1,-2.5745133E-1,-3.303409E-1,-6.0483295E-1,-3.3384702E-1,-1.854919E-1,-1.3864124E-1,-7.71048E-2,-2.1234751E-1,-5.585396E-2,-1.4496087E-1,2.4183262E-2,1.460035E-1,1.8355125E-1,4.1839477E-1,4.4468364E-1,7.242665E-1,7.985662E-1,4.8068175E-1,1.0300751E0,5.964299E-1,1.273623E0,9.369117E-1,1.8650999E0,1.4842979E0,1.4116505E0,1.7499485E0,2.353501E0,1.3896506E0,2.8103513E-1,6.9015676E-1,1.7911026E-1,-4.0220752E-2,-4.9821034E-1,-1.034357E0,-3.7621725E-1,-4.7906447E-2,5.957899E-1,8.6282647E-1,3.095424E-1,9.7781934E-2,5.9482914E-1,1.0157632E0,1.3188446E0,7.3350114E-1],"split_indices":[0,8,8,0,8,11,8,11,11,8,0,11,7,8,11,1,8,11,8,6,11,11,11,11,1,11,11,6,7,7,4,8,11,11,11,11,8,11,6,1,11,0,7,8,7,7,4,1,1,6,8,6,6,4,1,11,1,11,8,5,7,6,8,0,0,0,0,0,0,0,0,0,0,0,0,0,0,0,0,0,0,0,0,0,0,0,0,0,0,0,0,0,0,0,0,0,0,0,0,0,0,0,0,0,0,0,0,0,0,0,0,0,0,0,0,0,0,0,0,0,0,0,0,0,0,0,0],"split_type":[0,0,0,0,0,0,0,0,0,0,0,0,0,0,0,0,0,0,0,0,0,0,0,0,0,0,0,0,0,0,0,0,0,0,0,0,0,0,0,0,0,0,0,0,0,0,0,0,0,0,0,0,0,0,0,0,0,0,0,0,0,0,0,0,0,0,0,0,0,0,0,0,0,0,0,0,0,0,0,0,0,0,0,0,0,0,0,0,0,0,0,0,0,0,0,0,0,0,0,0,0,0,0,0,0,0,0,0,0,0,0,0,0,0,0,0,0,0,0,0,0,0,0,0,0,0,0],"sum_hessian":[9.818425E6,6.557231E6,3.261194E6,1.622036E6,4.935195E6,6.04073E5,2.657121E6,8.10666E5,8.1137E5,1.896209E6,3.038986E6,4.61706E5,1.42367E5,1.035362E6,1.621759E6,6.04812E5,2.05854E5,6.04794E5,2.06576E5,3.20089E5,1.57612E6,1.524048E6,1.514938E6,2.63807E5,1.97899E5,7.266E4,6.9707E4,1.43088E5,8.92274E5,1.245557E6,3.76202E5,4.16515E5,1.88297E5,1.35923E5,6.9931E4,3.57124E5,2.4767E5,1.21999E5,8.4577E4,1.2263E5,1.97459E5,1.242288E6,3.33832E5,1.169041E6,3.55007E5,1.160883E6,3.54055E5,6.2092E4,2.01715E5,1.26542E5,7.1357E4,5.3619E4,1.9041E4,3.8726E4,3.0981E4,7.1107E4,7.1981E4,5.46028E5,3.46246E5,1.97825E5,1.047732E6,2.79081E5,9.7121E4,2.66413E5,1.50102E5,4.9624E4,1.38673E5,1.03074E5,3.2849E4,4.077E4,2.9161E4,8.561E4,2.71514E5,1.23026E5,1.24644E5,9.2304E4,2.9695E4,6.7002E4,1.7575E4,9.4175E4,2.8455E4,1.50216E5,4.7243E4,6.20792E5,6.21496E5,1.39067E5,1.94765E5,1.50033E5,1.019008E6,3.36544E5,1.8463E4,1.036364E6,1.24519E5,2.37841E5,1.16214E5,5.4478E4,7.614E3,1.47551E5,5.4164E4,8.9104E4,3.7438E4,6.0643E4,1.0714E4,2.1483E4,3.2136E4,9.597E3,9.444E3,2.2504E4,1.6222E4,2.7389E4,3.592E3,4.9794E4,2.1313E4,4.505E4,2.6931E4,4.32303E5,1.13725E5,2.24117E5,1.22129E5,8.7177E4,1.10648E5,8.40283E5,2.07449E5,2.54105E5,2.4976E4,3.0754E4,6.6367E4],"tree_param":{"num_deleted":"0","num_feature":"12","num_nodes":"127","size_leaf_vector":"1"}},{"base_weights":[-5.1931775E-4,-2.3209803E0,4.667046E0,1.7556222E-1,-3.1418812E0,1.5562354E1,2.1894305E0,-1.3737099E0,1.7248781E0,-5.580332E0,-1.5375843E0,1.1938097E1,3.245758E1,-6.8917065E0,8.269115E0,-1.7968593E0,5.755407E-1,7.6068336E-1,6.169461E0,-4.9725513E0,-8.720046E0,-2.0886023E0,-6.668887E-4,6.2830424E0,1.6725782E1,2.4866295E1,4.04438E1,4.2398925E0,-8.789221E0,5.9185934E0,1.4439565E1,-2.410615E0,-1.244883E0,-7.7523416E-1,3.1170604E0,-6.375126E-1,2.0680645E0,3.1959682E0,9.879013E0,-3.0575097E0,-5.5663624E0,-3.5084157E0,-9.528769E0,-2.792023E0,-1.3803437E0,-1.4736848E0,1.478286E0,5.0525656E0,1.1269765E1,1.249749E1,1.9057043E1,2.1665436E1,3.2746357E1,3.472101E1,4.4450195E1,7.2659492E0,7.5310147E-1,-1.1808907E1,-4.50509E0,4.760342E0,1.4194434E1,1.2331665E1,2.1069931E1,-1.3073607E-1,-9.8925464E-2,-7.839465E-2,-3.325196E-2,-8.827588E-2,-6.783606E-4,1.902375E-1,9.202972E-2,-4.5680203E-2,5.8530588E-2,3.9429978E-2,1.387003E-1,5.4768104E-2,2.410717E-1,5.562188E-1,1.7923795E-1,-1.6226678E-1,1.9332943E-2,-2.1964224E-1,-3.0229303E-1,-7.090699E-2,-2.8058955E-1,-6.416669E-1,-3.4249637E-1,-1.8833894E-1,-1.3438897E-1,-1.3783528E-1,-5.2773576E-2,-9.688431E-2,-3.4758966E-2,3.834855E-2,1.8538898E-1,5.735652E-1,2.2147448E-1,1.1749235E0,4.5976186E-1,4.9236116E-1,8.5791725E-1,1.0370795E0,5.3792566E-1,1.3521138E0,8.987629E-1,1.8040627E0,1.3294339E0,1.8869761E0,1.3003119E0,2.344177E0,1.733901E0,2.4597941E-1,7.837621E-1,9.649848E-2,-5.0491905E-1,-4.686168E-1,-1.2294953E0,-3.5757202E-1,-3.0725727E-2,1.7395668E-3,2.8739485E-1,7.597305E-1,4.366736E-1,5.170877E-1,7.3062736E-1,9.4065714E-1,1.4370544E0],"categories":[],"categories_nodes":[],"categories_segments":[],"categories_sizes":[],"default_left":[0,0,0,0,0,0,0,0,0,0,0,0,0,0,0,0,0,0,0,0,0,0,0,0,0,0,0,0,0,0,0,0,0,0,0,0,0,0,0,0,0,0,0,0,0,0,0,0,0,0,0,0,0,0,0,0,0,0,0,0,0,0,0,0,0,0,0,0,0,0,0,0,0,0,0,0,0,0,0,0,0,0,0,0,0,0,0,0,0,0,0,0,0,0,0,0,0,0,0,0,0,0,0,0,0,0,0,0,0,0,0,0,0,0,0,0,0,0,0,0,0,0,0,0,0,0,0],"id":9,"left_children":[1,3,5,7,9,11,13,15,17,19,21,23,25,27,29,31,33,35,37,39,41,43,45,47,49,51,53,55,57,59,61,63,65,67,69,71,73,75,77,79,81,83,85,87,89,91,93,95,97,99,101,103,105,107,109,111,113,115,117,119,121,123,125,-1,-1,-1,-1,-1,-1,-1,-1,-1,-1,-1,-1,-1,-1,-1,-1,-1,-1,-1,-1,-1,-1,-1,-1,-1,-1,-1,-1,-1,-1,-1,-1,-1,-1,-1,-1,-1,-1,-1,-1,-1,-1,-1,-1,-1,-1,-1,-1,-1,-1,-1,-1,-1,-1,-1,-1,-1,-1,-1,-1,-1,-1,-1,-1],"loss_changes":[1.0637839E8,1.34448E7,8.804035E7,3.8965488E6,1.9313392E7,3.6999376E7,1.4670445E8,6.6950025E5,3.4783358E6,3.738524E6,2.5218185E6,1.3470192E7,6.46928E6,2.2507316E7,2.3084416E7,2.259325E5,4.970215E5,1.2192131E6,1.5959575E6,1.866556E6,1.339166E6,1.092036E6,1.7120236E6,1.399587E6,2.655544E6,1.379436E6,1.190888E6,1.6373968E6,1.1777296E7,1.10479E7,6.13596E6,2.7845375E4,6.5764E4,7.130377E4,4.4096906E4,1.6089266E5,3.1132312E5,2.7422738E5,5.04587E5,2.5132475E5,7.04988E5,1.8765794E5,2.43483E6,1.11736E5,4.88375E5,1.4222194E5,6.218843E5,7.31668E5,1.145032E6,1.182658E6,2.427536E6,7.71644E5,3.2358E5,5.6251E5,7.25732E5,1.639233E6,9.208556E5,1.6629272E7,3.875231E6,4.718394E6,7.72752E5,1.5119E6,1.83298E6,0E0,0E0,0E0,0E0,0E0,0E0,0E0,0E0,0E0,0E0,0E0,0E0,0E0,0E0,0E0,0E0,0E0,0E0,0E0,0E0,0E0,0E0,0E0,0E0,0E0,0E0,0E0,0E0,0E0,0E0,0E0,0E0,0E0,0E0,0E0,0E0,0E0,0E0,0E0,0E0,0E0,0E0,0E0,0E0,0E0,0E0,0E0,0E0,0E0,0E0,0E0,0E0,0E0,0E0,0E0,0E0,0E0,0E0,0E0,0E0,0E0,0E0,0E0,0E0],"parents":[2147483647,0,0,1,1,2,2,3,3,4,4,5,5,6,6,7,7,8,8,9,9,10,10,11,11,12,12,13,13,14,14,15,15,16,16,17,17,18,18,19,19,20,20,21,21,22,22,23,23,24,24,25,25,26,26,27,27,28,28,29,29,30,30,31,31,32,32,33,33,34,34,35,35,36,36,37,37,38,38,39,39,40,40,41,41,42,42,43,43,44,44,45,45,46,46,47,47,48,48,49,49,50,50,51,51,52,52,53,53,54,54,55,55,56,56,57,57,58,58,59,59,60,60,61,61,62,62],"right_children":[2,4,6,8,10,12,14,16,18,20,22,24,26,28,30,32,34,36,38,40,42,44,46,48,50,52,54,56,58,60,62,64,66,68,70,72,74,76,78,80,82,84,86,88,90,92,94,96,98,100,102,104,106,108,110,112,114,116,118,120,122,124,126,-1,-1,-1,-1,-1,-1,-1,-1,-1,-1,-1,-1,-1,-1,-1,-1,-1,-1,-1,-1,-1,-1,-1,-1,-1,-1,-1,-1,-1,-1,-1,-1,-1,-1,-1,-1,-1,-1,-1,-1,-1,-1,-1,-1,-1,-1,-1,-1,-1,-1,-1,-1,-1,-1,-1,-1,-1,-1,-1,-1,-1,-1,-1,-1],"split_conditions":[3.6E1,1.993E2,1.892E2,1.2E1,2.27223E2,8.361183E0,2.24806E2,8.45389E0,8.45389E0,8.45389E0,7.657061E0,5.2754645E0,5.7E0,1.981E2,7.525075E0,5.765325E0,1.863E2,5.3703294E0,1.837E2,2.07667E2,2.031E2,1.2E1,1.2E1,6.0825424E0,2.3879978E-1,1.0434737E1,8.685658E0,2.61E0,8.8E0,1.34E0,1.0943703E1,5.111135E0,1.855E2,9.941923E0,3.9225695E-1,6.2746105E0,2.3734064E-1,9.941923E0,3.5E0,7.871654E0,1.5E-1,4.99E0,8.5E0,2.499187E0,3.3683186E0,8.45389E0,1.1109021E1,3.8537693E0,6.2451115E0,6.2746105E0,7.2371793E0,4E0,7.8E0,6.51E0,4.7822323E-1,7.871654E0,9.941923E0,8.45389E0,2.17605E2,3.2046309E0,4.742816E-1,7.2371793E0,7.3E0,-1.3073607E-1,-9.8925464E-2,-7.839465E-2,-3.325196E-2,-8.827588E-2,-6.783606E-4,1.902375E-1,9.202972E-2,-4.5680203E-2,5.8530588E-2,3.9429978E-2,1.387003E-1,5.4768104E-2,2.410717E-1,5.562188E-1,1.7923795E-1,-1.6226678E-1,1.9332943E-2,-2.1964224E-1,-3.0229303E-1,-7.090699E-2,-2.8058955E-1,-6.416669E-1,-3.4249637E-1,-1.8833894E-1,-1.3438897E-1,-1.3783528E-1,-5.2773576E-2,-9.688431E-2,-3.4758966E-2,3.834855E-2,1.8538898E-1,5.735652E-1,2.2147448E-1,1.1749235E0,4.5976186E-1,4.9236116E-1,8.5791725E-1,1.0370795E0,5.3792566E-1,1.3521138E0,8.987629E-1,1.8040627E0,1.3294339E0,1.8869761E0,1.3003119E0,2.344177E0,1.733901E0,2.4597941E-1,7.837621E-1,9.649848E-2,-5.0491905E-1,-4.686168E-1,-1.2294953E0,-3.5757202E-1,-3.0725727E-2,1.7395668E-3,2.8739485E-1,7.597305E-1,4.366736E-1,5.170877E-1,7.3062736E-1,9.4065714E-1,1.4370544E0],"split_indices":[0,8,8,0,8,10,8,10,10,10,9,9,7,8,9,10,8,9,8,8,8,0,0,10,3,11,9,6,7,6,9,9,8,10,3,10,3,10,6,10,6,6,7,9,9,10,9,10,10,10,10,6,5,5,3,10,10,10,8,9,3,10,7,0,0,0,0,0,0,0,0,0,0,0,0,0,0,0,0,0,0,0,0,0,0,0,0,0,0,0,0,0,0,0,0,0,0,0,0,0,0,0,0,0,0,0,0,0,0,0,0,0,0,0,0,0,0,0,0,0,0,0,0,0,0,0,0],"split_type":[0,0,0,0,0,0,0,0,0,0,0,0,0,0,0,0,0,0,0,0,0,0,0,0,0,0,0,0,0,0,0,0,0,0,0,0,0,0,0,0,0,0,0,0,0,0,0,0,0,0,0,0,0,0,0,0,0,0,0,0,0,0,0,0,0,0,0,0,0,0,0,0,0,0,0,0,0,0,0,0,0,0,0,0,0,0,0,0,0,0,0,0,0,0,0,0,0,0,0,0,0,0,0,0,0,0,0,0,0,0,0,0,0,0,0,0,0,0,0,0,0,0,0,0,0,0,0],"sum_hessian":[9.821745E6,6.560313E6,3.261432E6,1.623349E6,4.936964E6,6.04248E5,2.657184E6,8.11686E5,8.11663E5,1.959151E6,2.977813E6,4.97524E5,1.06724E5,1.065565E6,1.591619E6,6.66911E5,1.44775E5,6.66973E5,1.4469E5,1.641412E6,3.17739E5,2.191951E6,7.85862E5,2.28101E5,2.69423E5,5.4717E4,5.2007E4,1.55185E5,9.1038E5,1.15257E6,4.39049E5,3.15782E5,3.51129E5,9.4533E4,5.0242E4,3.22293E5,3.4468E5,8.0314E4,6.4376E4,3.88501E5,1.252911E6,4.2683E4,2.75056E5,1.09973E6,1.092221E6,3.93721E5,3.92141E5,1.82958E5,4.5143E4,9.5755E4,1.73668E5,3.8914E4,1.5803E4,2.142E4,3.0587E4,8.3081E4,7.2104E4,5.33992E5,3.76388E5,1.011067E6,1.41503E5,3.33141E5,1.05908E5,2.14471E5,1.01311E5,2.25506E5,1.25623E5,4.1098E4,5.3435E4,3.265E4,1.7592E4,2.796E5,4.2693E4,1.22557E5,2.22123E5,3.5037E4,4.5277E4,5.3742E4,1.0634E4,3.6841E5,2.0091E4,3.63441E5,8.8947E5,2.1409E4,2.1274E4,1.23144E5,1.51912E5,1.06243E5,9.93487E5,2.08572E5,8.83649E5,2.46689E5,1.47032E5,2.97292E5,9.4849E4,1.6187E4,1.66771E5,6.546E3,3.8597E4,6.1046E4,3.4709E4,1.44362E5,2.9306E4,1.5835E4,2.3079E4,1.0248E4,5.555E3,1.5907E4,5.513E3,2.4486E4,6.101E3,6.4958E4,1.8123E4,6.505E4,7.054E3,4.48493E5,8.5499E4,2.24014E5,1.52374E5,1.74771E5,8.36296E5,1.19597E5,2.1906E4,1.77922E5,1.55219E5,8.1836E4,2.4072E4],"tree_param":{"num_deleted":"0","num_feature":"12","num_nodes":"127","size_leaf_vector":"1"}},{"base_weights":[2.8223477E-4,-2.2040944E0,4.4340463E0,-1.6401234E0,-4.9339905E0,1.6268958E0,8.242285E0,-2.34194E0,-8.850678E-1,-3.9366052E0,-5.717459E0,9.62029E0,3.1246156E-1,1.0919651E1,1.4850362E-1,-2.8211927E0,-1.8609538E0,-1.5950744E-1,-2.2442098E0,-3.0858808E0,-4.340758E0,-5.202047E0,-7.765682E0,1.3681946E1,8.327041E0,1.8710876E0,-4.9494686E0,7.153514E0,1.9445936E1,1.7041183E1,-5.684075E0,-3.4929402E0,-2.698709E0,-3.034971E0,-1.5279354E0,-1.5300198E0,1.2096908E0,-1.9359152E0,-9.869678E0,-3.3799887E0,-1.4679871E0,-3.5684657E0,-4.727424E0,-6.2346034E0,-4.750833E0,-6.573839E0,-8.955688E0,4.645619E0,1.422374E1,7.4915404E0,1.1607995E1,4.1715536E0,-4.376719E0,-2.383591E0,-7.589491E0,9.20248E0,-3.6500165E0,1.4117702E1,2.4949629E1,1.4949327E1,2.499045E1,3.837093E-1,-1.2438654E1,-2.366743E-1,-1.6815166E-1,-1.2885493E-1,-1.5443826E-1,-2.2903244E-1,-1.3655263E-1,-5.77648E-2,-1.1705535E-1,-9.0352826E-2,-3.4159955E-3,1.602341E-2,1.7727184E-1,-1.21737085E-1,1.4719227E-2,-3.689872E-1,-7.352584E-1,-3.083489E-1,-1.6426641E-1,-1.7238042E-1,2.6204223E-2,-1.6947077E-1,-2.4113588E-1,-3.7946165E-1,-2.3155923E-1,-2.8437823E-1,-3.859586E-1,-2.0632096E-1,-2.5314876E-1,-3.548342E-1,-2.6363787E-1,-5.045593E-1,-3.685852E-1,2.6995626E-1,-1.3588236E-1,7.451086E-1,3.6063206E-1,3.979791E-1,3.0872345E-2,3.9506924E-1,6.6980237E-1,5.4246128E-2,2.9617622E-1,-1.0444988E-2,-3.102153E-1,-6.6428626E-1,-1.3374527E-2,-3.564189E-1,-1.1048744E0,3.6241242E-1,8.502223E-1,-2.845611E-1,-1.0177721E-2,8.164975E-1,4.2078137E-1,9.2934316E-1,1.7904762E0,8.515642E-1,5.028912E-1,1.3197426E0,7.0884156E-1,-9.099181E-1,1.8206887E-1,-3.5029066E-1,-1.1366196E0],"categories":[],"categories_nodes":[],"categories_segments":[],"categories_sizes":[],"default_left":[0,0,0,0,0,0,0,0,0,0,0,0,0,0,0,0,0,0,0,0,0,0,0,0,0,0,0,0,0,0,0,0,0,0,0,0,0,0,0,0,0,0,0,0,0,0,0,0,0,0,0,0,0,0,0,0,0,0,0,0,0,0,0,0,0,0,0,0,0,0,0,0,0,0,0,0,0,0,0,0,0,0,0,0,0,0,0,0,0,0,0,0,0,0,0,0,0,0,0,0,0,0,0,0,0,0,0,0,0,0,0,0,0,0,0,0,0,0,0,0,0,0,0,0,0,0,0],"id":10,"left_children":[1,3,5,7,9,11,13,15,17,19,21,23,25,27,29,31,33,35,37,39,41,43,45,47,49,51,53,55,57,59,61,63,65,67,69,71,73,75,77,79,81,83,85,87,89,91,93,95,97,99,101,103,105,107,109,111,113,115,117,119,121,123,125,-1,-1,-1,-1,-1,-1,-1,-1,-1,-1,-1,-1,-1,-1,-1,-1,-1,-1,-1,-1,-1,-1,-1,-1,-1,-1,-1,-1,-1,-1,-1,-1,-1,-1,-1,-1,-1,-1,-1,-1,-1,-1,-1,-1,-1,-1,-1,-1,-1,-1,-1,-1,-1,-1,-1,-1,-1,-1,-1,-1,-1,-1,-1,-1],"loss_changes":[9.597891E7,1.0098252E7,3.4861532E7,2.88062E6,8.7754E5,1.9724036E7,2.9986528E7,6.49433E5,2.5824065E6,1.6986E5,6.63944E5,1.392408E6,1.3221972E7,3.3389568E7,3.389024E7,1.16103E5,5.497515E5,3.2037365E6,2.1426165E6,7.571325E4,1.000045E5,2.34095E5,1.79284E5,3.1338E5,5.51127E5,1.7876328E7,2.495583E6,1.5965452E7,9.341912E6,1.467626E6,1.0479338E7,3.50565E4,5.661E4,1.4595175E5,3.3193E5,3.4551312E5,1.7738696E6,9.7457875E5,4.2630225E5,3.55025E4,9.653589E4,2.50805E4,6.1437E4,1.240575E5,6.81395E4,4.294175E4,1.137255E5,2.0116047E4,2.87193E5,5.15649E5,2.70374E5,4.915809E6,2.5495255E6,4.3101665E6,1.214587E6,9.243416E6,8.088899E5,2.041772E6,1.0827632E7,7.11602E5,2.78909E5,8.153481E6,6.766394E6,0E0,0E0,0E0,0E0,0E0,0E0,0E0,0E0,0E0,0E0,0E0,0E0,0E0,0E0,0E0,0E0,0E0,0E0,0E0,0E0,0E0,0E0,0E0,0E0,0E0,0E0,0E0,0E0,0E0,0E0,0E0,0E0,0E0,0E0,0E0,0E0,0E0,0E0,0E0,0E0,0E0,0E0,0E0,0E0,0E0,0E0,0E0,0E0,0E0,0E0,0E0,0E0,0E0,0E0,0E0,0E0,0E0,0E0,0E0,0E0,0E0,0E0,0E0,0E0],"parents":[2147483647,0,0,1,1,2,2,3,3,4,4,5,5,6,6,7,7,8,8,9,9,10,10,11,11,12,12,13,13,14,14,15,15,16,16,17,17,18,18,19,19,20,20,21,21,22,22,23,23,24,24,25,25,26,26,27,27,28,28,29,29,30,30,31,31,32,32,33,33,34,34,35,35,36,36,37,37,38,38,39,39,40,40,41,41,42,42,43,43,44,44,45,45,46,46,47,47,48,48,49,49,50,50,51,51,52,52,53,53,54,54,55,55,56,56,57,57,58,58,59,59,60,60,61,61,62,62],"right_children":[2,4,6,8,10,12,14,16,18,20,22,24,26,28,30,32,34,36,38,40,42,44,46,48,50,52,54,56,58,60,62,64,66,68,70,72,74,76,78,80,82,84,86,88,90,92,94,96,98,100,102,104,106,108,110,112,114,116,118,120,122,124,126,-1,-1,-1,-1,-1,-1,-1,-1,-1,-1,-1,-1,-1,-1,-1,-1,-1,-1,-1,-1,-1,-1,-1,-1,-1,-1,-1,-1,-1,-1,-1,-1,-1,-1,-1,-1,-1,-1,-1,-1,-1,-1,-1,-1,-1,-1,-1,-1,-1,-1,-1,-1,-1,-1,-1,-1,-1,-1,-1,-1,-1,-1,-1,-1],"split_conditions":[3.6E1,8.3E0,6.3271213E0,5.99472E0,1.4E-1,4.4E0,1.98E0,1.2E1,1.81E0,9E0,7.871654E0,3.9E0,1.95E0,9.8E-1,4.4E0,2.7811062E0,3.2046309E0,1.2E1,5.8E0,8.631615E0,1.7619166E-1,4.901776E0,1.2E1,3.8537693E0,6.2746105E0,8.3E0,4.21E0,9.4E0,5.6E0,9.260185E0,4.21E0,1.6332065E-1,6.1E0,1.2411366E0,1.98E0,9.941923E0,8.45389E0,5.31E0,8.45389E0,1.4382383E0,1.2E1,6.653159E0,3.8537693E0,4.866187E0,1.7E-1,9.6E0,9.941923E0,5.9857327E-1,2.28E0,6.2451115E0,1.42E0,3.9905796E0,1.1E-1,2.09E0,8.45389E0,1.01953535E1,1.9E-1,3.6714712E-1,8.45389E0,7.871654E0,1.0108115E1,2.09E0,8.45389E0,-2.366743E-1,-1.6815166E-1,-1.2885493E-1,-1.5443826E-1,-2.2903244E-1,-1.3655263E-1,-5.77648E-2,-1.1705535E-1,-9.0352826E-2,-3.4159955E-3,1.602341E-2,1.7727184E-1,-1.21737085E-1,1.4719227E-2,-3.689872E-1,-7.352584E-1,-3.083489E-1,-1.6426641E-1,-1.7238042E-1,2.6204223E-2,-1.6947077E-1,-2.4113588E-1,-3.7946165E-1,-2.3155923E-1,-2.8437823E-1,-3.859586E-1,-2.0632096E-1,-2.5314876E-1,-3.548342E-1,-2.6363787E-1,-5.045593E-1,-3.685852E-1,2.6995626E-1,-1.3588236E-1,7.451086E-1,3.6063206E-1,3.979791E-1,3.0872345E-2,3.9506924E-1,6.6980237E-1,5.4246128E-2,2.9617622E-1,-1.0444988E-2,-3.102153E-1,-6.6428626E-1,-1.3374527E-2,-3.564189E-1,-1.1048744E0,3.6241242E-1,8.502223E-1,-2.845611E-1,-1.0177721E-2,8.164975E-1,4.2078137E-1,9.2934316E-1,1.7904762E0,8.515642E-1,5.028912E-1,1.3197426E0,7.0884156E-1,-9.099181E-1,1.8206887E-1,-3.5029066E-1,-1.1366196E0],"split_indices":[0,7,9,9,6,7,6,0,6,7,10,7,6,6,7,9,9,0,7,9,4,10,0,10,10,7,6,7,7,10,6,9,7,9,6,10,10,6,10,9,0,10,10,10,6,7,10,3,6,10,6,9,6,6,10,9,6,3,10,10,10,6,10,0,0,0,0,0,0,0,0,0,0,0,0,0,0,0,0,0,0,0,0,0,0,0,0,0,0,0,0,0,0,0,0,0,0,0,0,0,0,0,0,0,0,0,0,0,0,0,0,0,0,0,0,0,0,0,0,0,0,0,0,0,0,0,0],"split_type":[0,0,0,0,0,0,0,0,0,0,0,0,0,0,0,0,0,0,0,0,0,0,0,0,0,0,0,0,0,0,0,0,0,0,0,0,0,0,0,0,0,0,0,0,0,0,0,0,0,0,0,0,0,0,0,0,0,0,0,0,0,0,0,0,0,0,0,0,0,0,0,0,0,0,0,0,0,0,0,0,0,0,0,0,0,0,0,0,0,0,0,0,0,0,0,0,0,0,0,0,0,0,0,0,0,0,0,0,0,0,0,0,0,0,0,0,0,0,0,0,0,0,0,0,0,0,0],"sum_hessian":[9.820133E6,6.559089E6,3.261044E6,5.436053E6,1.123036E6,1.877265E6,1.383779E6,2.817351E6,2.618702E6,4.94071E5,6.28965E5,2.65103E5,1.612162E6,1.039815E6,3.43964E5,1.411216E6,1.406135E6,1.707289E6,9.11413E5,1.59126E5,3.34945E5,5.02516E5,1.26449E5,6.4022E4,2.01081E5,1.243753E6,3.68409E5,7.21239E5,3.18576E5,8.828E4,2.55684E5,2.17629E5,1.193587E6,3.1072E5,1.095415E6,8.53235E5,8.54054E5,8.75998E5,3.5415E4,1.34648E5,2.4478E4,1.11752E5,2.23193E5,1.52811E5,3.49705E5,6.3179E4,6.327E4,3.622E3,6.04E4,1.60271E5,4.081E4,9.09041E5,3.34712E5,1.86829E5,1.8158E5,6.06258E5,1.14981E5,1.6187E5,1.56706E5,6.9891E4,1.8389E4,1.3469E5,1.20994E5,2.0626E4,1.97003E5,9.09907E5,2.8368E5,5.1054E4,2.59666E5,7.51184E5,3.44231E5,7.17287E5,1.35948E5,6.18566E5,2.35488E5,7.15884E5,1.60114E5,2.3379E4,1.2036E4,4.421E3,1.30227E5,1.2277E4,1.2201E4,9.7795E4,1.3957E4,7.259E3,2.15934E5,1.11668E5,4.1143E4,1.16557E5,2.33148E5,4.5065E4,1.8114E4,3.6849E4,2.6421E4,3.286E3,3.36E2,5.507E4,5.33E3,1.50054E5,1.0217E4,1.3282E4,2.7528E4,3.29148E5,5.79893E5,1.02031E5,2.32681E5,3.0368E4,1.56461E5,1.75988E5,5.592E3,4.84822E5,1.21436E5,7.2212E4,4.2769E4,1.16622E5,4.5248E4,9.8814E4,5.7892E4,4.9023E4,2.0868E4,1.6274E4,2.115E3,2.009E4,1.146E5,7.9197E4,4.1797E4],"tree_param":{"num_deleted":"0","num_feature":"12","num_nodes":"127","size_leaf_vector":"1"}},{"base_weights":[-2.4593168E-5,-2.0936203E0,4.209654E0,-1.558223E0,-4.685418E0,1.1692496E1,2.91148E0,-2.184485E0,-7.961994E-1,-2.9852612E0,-5.030943E0,9.800084E0,1.5842851E1,1.3772237E-1,6.337712E0,-2.654185E0,-1.712902E0,-7.8885846E-2,-2.1266773E0,-3.2470016E0,-1.5290872E0,-4.6218324E0,-6.661092E0,1.36845455E1,8.568265E0,1.0938208E1,1.7723543E1,2.8064299E0,-2.1356091E0,7.2672254E-1,9.119061E0,-3.1555247E0,-2.498505E0,-2.6367931E0,-1.3163794E0,-1.3652126E0,1.2129077E0,-3.2282274E0,2.5031888E-1,-5.946087E0,-3.1556716E0,-3.442939E0,3.9243317E-1,-5.527221E0,-4.227254E0,-5.6516137E0,-7.6709948E0,1.2936666E1,2.0883198E1,7.4854536E0,1.1500652E1,1.4400673E1,7.1009135E0,1.663041E1,2.1491152E1,-2.360437E0,3.5748584E0,-2.9939547E0,8.496654E0,9.264829E0,-7.133505E0,1.2358665E1,-6.021658E-1,-1.9822806E-1,-1.5090118E-1,-1.1914748E-1,-1.4355592E-1,-1.1020141E-1,-1.7625177E-1,-4.5826897E-2,-1.0068265E-1,-8.440905E-2,1.7308421E-2,2.5503486E-2,2.4629529E-1,-2.3121953E-1,-7.632171E-2,-6.441964E-2,8.9471236E-2,-4.4556066E-1,-2.5756204E-1,-2.6594082E-1,-1.5371025E-1,-1.2945493E-1,-2.4950473E-1,4.1527316E-1,9.580632E-3,-2.4129216E-1,-3.2437733E-1,-1.9765386E-1,-2.3628543E-1,-3.2292673E-1,-2.0986848E-1,-4.2928576E-1,-3.2005954E-1,2.2900927E-1,6.696369E-1,1.1079801E0,4.4762444E-1,4.486862E-1,2.670295E-1,3.8878474E-1,6.6083235E-1,6.898411E-1,1.3685914E0,5.0008553E-1,2.2549477E-1,9.031086E-1,7.795624E-1,1.024949E0,1.589906E0,-5.9421223E-1,-7.991353E-2,2.0590404E-1,-3.6615144E-2,-3.420541E-1,-5.712348E-2,2.890784E-1,7.4174994E-1,4.274044E-1,9.620452E-1,-5.497999E-1,1.0577415E0,4.7057697E-1,9.4674367E-1,2.3709503E-1,-2.4408595E-1],"categories":[],"categories_nodes":[],"categories_segments":[],"categories_sizes":[],"default_left":[0,0,0,0,0,0,0,0,0,0,0,0,0,0,0,0,0,0,0,0,0,0,0,0,0,0,0,0,0,0,0,0,0,0,0,0,0,0,0,0,0,0,0,0,0,0,0,0,0,0,0,0,0,0,0,0,0,0,0,0,0,0,0,0,0,0,0,0,0,0,0,0,0,0,0,0,0,0,0,0,0,0,0,0,0,0,0,0,0,0,0,0,0,0,0,0,0,0,0,0,0,0,0,0,0,0,0,0,0,0,0,0,0,0,0,0,0,0,0,0,0,0,0,0,0,0,0],"id":11,"left_children":[1,3,5,7,9,11,13,15,17,19,21,23,25,27,29,31,33,35,37,39,41,43,45,47,49,51,53,55,57,59,61,63,65,67,69,71,73,75,77,79,81,83,85,87,89,91,93,95,97,99,101,103,105,107,109,111,113,115,117,119,121,123,125,-1,-1,-1,-1,-1,-1,-1,-1,-1,-1,-1,-1,-1,-1,-1,-1,-1,-1,-1,-1,-1,-1,-1,-1,-1,-1,-1,-1,-1,-1,-1,-1,-1,-1,-1,-1,-1,-1,-1,-1,-1,-1,-1,-1,-1,-1,-1,-1,-1,-1,-1,-1,-1,-1,-1,-1,-1,-1,-1,-1,-1,-1,-1,-1],"loss_changes":[8.65728E7,9.103312E6,3.1693148E7,2.594734E6,6.59784E5,3.788244E6,2.6422486E7,6.61049E5,2.3407922E6,7.2301125E4,6.22504E5,1.585088E6,1.39314E6,9.321344E6,1.941158E7,1.16689E5,5.45563E5,2.6479702E6,2.2495845E6,3.962075E4,1.0630332E5,2.66551E5,1.908685E5,4.29143E5,7.98574E5,5.56203E5,4.49316E5,2.8061015E6,7.5717965E6,2.766542E7,2.619E7,3.93995E4,4.9118E4,1.7190175E5,2.9050888E5,4.4133262E5,2.0748951E6,1.394894E6,6.443246E5,1.2355656E4,2.7394125E4,1.911814E4,2.292116E4,1.5252E5,7.1007E4,1.0987475E5,1.08675E5,2.75322E5,1.1409075E5,5.86348E5,4.33468E5,1.72011E5,1.49238E5,1.25642E5,2.50414E5,6.641763E5,1.439549E6,5.4682565E6,1.0664855E6,1.41269E6,2.3452118E7,1.208868E7,4.753964E6,0E0,0E0,0E0,0E0,0E0,0E0,0E0,0E0,0E0,0E0,0E0,0E0,0E0,0E0,0E0,0E0,0E0,0E0,0E0,0E0,0E0,0E0,0E0,0E0,0E0,0E0,0E0,0E0,0E0,0E0,0E0,0E0,0E0,0E0,0E0,0E0,0E0,0E0,0E0,0E0,0E0,0E0,0E0,0E0,0E0,0E0,0E0,0E0,0E0,0E0,0E0,0E0,0E0,0E0,0E0,0E0,0E0,0E0,0E0,0E0,0E0,0E0,0E0,0E0],"parents":[2147483647,0,0,1,1,2,2,3,3,4,4,5,5,6,6,7,7,8,8,9,9,10,10,11,11,12,12,13,13,14,14,15,15,16,16,17,17,18,18,19,19,20,20,21,21,22,22,23,23,24,24,25,25,26,26,27,27,28,28,29,29,30,30,31,31,32,32,33,33,34,34,35,35,36,36,37,37,38,38,39,39,40,40,41,41,42,42,43,43,44,44,45,45,46,46,47,47,48,48,49,49,50,50,51,51,52,52,53,53,54,54,55,55,56,56,57,57,58,58,59,59,60,60,61,61,62,62],"right_children":[2,4,6,8,10,12,14,16,18,20,22,24,26,28,30,32,34,36,38,40,42,44,46,48,50,52,54,56,58,60,62,64,66,68,70,72,74,76,78,80,82,84,86,88,90,92,94,96,98,100,102,104,106,108,110,112,114,116,118,120,122,124,126,-1,-1,-1,-1,-1,-1,-1,-1,-1,-1,-1,-1,-1,-1,-1,-1,-1,-1,-1,-1,-1,-1,-1,-1,-1,-1,-1,-1,-1,-1,-1,-1,-1,-1,-1,-1,-1,-1,-1,-1,-1,-1,-1,-1,-1,-1,-1,-1,-1,-1,-1,-1,-1,-1,-1,-1,-1,-1,-1,-1,-1,-1,-1,-1],"split_conditions":[3.6E1,8.3E0,4.4E0,6.196462E0,4.12E0,7.315795E0,6.141181E0,1.2E1,5.92E0,8.631615E0,7.871654E0,3.9E0,4.04E0,4.51E0,5.2E0,3.3683186E0,3.6879914E0,1.2E1,6.81E0,1.4382383E0,1.2E1,4.901776E0,1.2E1,6.6681304E0,6.2746105E0,7.125E4,1.0943703E1,2.499187E0,6.81E0,4.23E0,8.7E0,1.2411366E0,6.1E0,5.92E0,5.92E0,5.42E0,5.42E0,5.2E0,1.2E1,4.1118E4,3.8537693E0,9.941923E0,4.6620646E0,3.237443E-1,3.5802808E-1,9.6E0,9.941923E0,3.8537693E0,4.88E0,4.59E0,4.04E0,1.6518923E1,3.3234662E-1,2.9856607E-1,1.6518923E1,-6.163658E-1,8.5E0,5.2E0,6.0825424E0,1.3094237E1,6.81E0,8.45389E0,4.81E0,-1.9822806E-1,-1.5090118E-1,-1.1914748E-1,-1.4355592E-1,-1.1020141E-1,-1.7625177E-1,-4.5826897E-2,-1.0068265E-1,-8.440905E-2,1.7308421E-2,2.5503486E-2,2.4629529E-1,-2.3121953E-1,-7.632171E-2,-6.441964E-2,8.9471236E-2,-4.4556066E-1,-2.5756204E-1,-2.6594082E-1,-1.5371025E-1,-1.2945493E-1,-2.4950473E-1,4.1527316E-1,9.580632E-3,-2.4129216E-1,-3.2437733E-1,-1.9765386E-1,-2.3628543E-1,-3.2292673E-1,-2.0986848E-1,-4.2928576E-1,-3.2005954E-1,2.2900927E-1,6.696369E-1,1.1079801E0,4.4762444E-1,4.486862E-1,2.670295E-1,3.8878474E-1,6.6083235E-1,6.898411E-1,1.3685914E0,5.0008553E-1,2.2549477E-1,9.031086E-1,7.795624E-1,1.024949E0,1.589906E0,-5.9421223E-1,-7.991353E-2,2.0590404E-1,-3.6615144E-2,-3.420541E-1,-5.712348E-2,2.890784E-1,7.4174994E-1,4.274044E-1,9.620452E-1,-5.497999E-1,1.0577415E0,4.7057697E-1,9.4674367E-1,2.3709503E-1,-2.4408595E-1],"split_indices":[0,7,7,9,5,9,9,0,5,9,10,7,5,5,7,9,9,0,5,9,0,10,0,10,10,1,9,9,5,5,7,9,7,5,5,5,5,7,0,1,10,10,10,4,4,7,10,10,5,5,5,9,4,4,9,9,7,7,10,9,5,10,5,0,0,0,0,0,0,0,0,0,0,0,0,0,0,0,0,0,0,0,0,0,0,0,0,0,0,0,0,0,0,0,0,0,0,0,0,0,0,0,0,0,0,0,0,0,0,0,0,0,0,0,0,0,0,0,0,0,0,0,0,0,0,0,0],"split_type":[0,0,0,0,0,0,0,0,0,0,0,0,0,0,0,0,0,0,0,0,0,0,0,0,0,0,0,0,0,0,0,0,0,0,0,0,0,0,0,0,0,0,0,0,0,0,0,0,0,0,0,0,0,0,0,0,0,0,0,0,0,0,0,0,0,0,0,0,0,0,0,0,0,0,0,0,0,0,0,0,0,0,0,0,0,0,0,0,0,0,0,0,0,0,0,0,0,0,0,0,0,0,0,0,0,0,0,0,0,0,0,0,0,0,0,0,0,0,0,0,0,0,0,0,0,0,0],"sum_hessian":[9.822898E6,6.56028E6,3.262618E6,5.437116E6,1.123164E6,4.8234E5,2.780278E6,2.984407E6,2.452709E6,1.89709E5,9.33455E5,3.31288E5,1.51052E5,1.536435E6,1.243843E6,1.495186E6,1.489221E6,1.593559E6,8.5915E5,1.60804E5,2.8905E4,7.46191E5,1.87264E5,7.976E4,2.51528E5,4.1869E4,1.09183E5,7.06758E5,8.29677E5,4.12229E5,8.31614E5,3.54278E5,1.140908E6,4.47214E5,1.042007E6,7.98469E5,7.9509E5,5.87083E5,2.72067E5,5.261E3,1.55543E5,1.4481E4,1.4424E4,2.26487E5,5.19704E5,9.3655E4,9.3609E4,7.2256E4,7.504E3,1.83699E5,6.7829E4,2.2008E4,1.9861E4,8.4633E4,2.455E4,9.1502E4,6.15256E5,7.67701E5,6.1976E4,1.97594E5,2.14635E5,6.23749E5,2.07865E5,5.1461E4,3.02817E5,8.70847E5,2.70061E5,3.00708E5,1.46506E5,6.62251E5,3.79756E5,6.71706E5,1.26763E5,6.68542E5,1.26548E5,3.225E5,2.64583E5,1.36051E5,1.36016E5,1.11E3,4.151E3,5.643E3,1.499E5,9.333E3,5.148E3,3.56E2,1.4068E4,1.30894E5,9.5593E4,3.35287E5,1.84417E5,6.0231E4,3.3424E4,5.4409E4,3.92E4,3.74E3,6.8516E4,6.778E3,7.26E2,1.08447E5,7.5252E4,2.1394E4,4.6435E4,2.1031E4,9.77E2,9.369E3,1.0492E4,3.5586E4,4.9047E4,2.2397E4,2.153E3,6.779E3,8.4723E4,5.4635E5,6.8906E4,2.49426E5,5.18275E5,4.3391E4,1.8585E4,1.84351E5,1.3243E4,1.8885E5,2.5785E4,4.30723E5,1.93026E5,9.2436E4,1.15429E5],"tree_param":{"num_deleted":"0","num_feature":"12","num_nodes":"127","size_leaf_vector":"1"}},{"base_weights":[2.636671E-4,-1.988443E0,4.0010686E0,2.360328E-1,-2.7644787E0,1.379589E1,1.7726803E0,-1.1190501E0,1.5916203E0,-5.154148E0,-1.3702636E0,1.0023072E1,2.6023958E1,-6.845607E0,6.7609324E0,-1.5669496E0,3.422529E-1,6.233396E-1,4.7540636E0,-4.610163E0,-7.1672354E0,-1.7123481E0,6.2347245E-1,5.095395E0,1.3825457E1,2.0743519E1,3.1538383E1,2.4188716E0,-9.296603E0,5.007224E0,1.3544509E1,-2.0911324E0,-1.1508437E0,-6.478888E-1,1.9495928E0,-6.1727774E-1,1.6105152E0,7.480018E0,2.8974032E0,-2.9960546E0,-5.0635242E0,-5.411392E0,-8.926203E0,-2.3573377E0,-1.063454E0,-8.841859E-1,2.1366613E0,3.0650747E0,7.0115414E0,1.1540994E1,1.6106731E1,1.8000534E1,2.8425919E1,2.481045E1,3.7415752E1,5.577171E0,-1.0566727E0,-1.154593E1,-5.136454E0,3.9004831E0,1.1930965E1,1.2124778E1,2.282764E1,-1.1944788E-1,-9.8431304E-2,-7.423855E-2,-2.9609958E-2,-4.832738E-2,1.2498247E-2,5.5487078E-2,1.4792295E-1,-5.0029527E-2,2.8764064E-4,1.2640266E-1,4.8639115E-2,2.7529904E-1,4.9254352E-1,4.2586228E-1,1.1676359E-1,-1.15961924E-1,-1.7575331E-1,-3.0368432E-1,-2.2615977E-1,-1.5189399E-1,-3.002218E-1,-5.746531E-1,-3.1441954E-1,-1.566242E-1,-1.1156737E-1,-8.34005E-2,-1.9351592E-2,-7.66871E-2,-1.8309394E-2,2.3574066E-1,6.6292636E-2,5.3338774E-2,2.0432559E-1,3.101504E-1,4.2714968E-1,5.485639E-1,8.8791513E-1,6.970133E-1,9.531129E-1,1.0824628E0,7.774803E-1,1.2245823E0,1.5880862E0,5.840022E-1,1.2907957E0,1.7187108E0,2.2057066E0,6.772428E-2,4.0486166E-1,-3.9241533E-4,-4.947064E-1,-4.7475037E-1,-9.706381E-1,-4.2139325E-1,-1.7635633E-1,6.39605E-2,2.722245E-1,4.9619675E-1,7.222478E-1,4.7251913E-1,6.869345E-1,1.0169529E0,1.4872174E0],"categories":[],"categories_nodes":[],"categories_segments":[],"categories_sizes":[],"default_left":[0,0,0,0,0,0,0,0,0,0,0,0,0,0,0,0,0,0,0,0,0,0,0,0,0,0,0,0,0,0,0,0,0,0,0,0,0,0,0,0,0,0,0,0,0,0,0,0,0,0,0,0,0,0,0,0,0,0,0,0,0,0,0,0,0,0,0,0,0,0,0,0,0,0,0,0,0,0,0,0,0,0,0,0,0,0,0,0,0,0,0,0,0,0,0,0,0,0,0,0,0,0,0,0,0,0,0,0,0,0,0,0,0,0,0,0,0,0,0,0,0,0,0,0,0,0,0],"id":12,"left_children":[1,3,5,7,9,11,13,15,17,19,21,23,25,27,29,31,33,35,37,39,41,43,45,47,49,51,53,55,57,59,61,63,65,67,69,71,73,75,77,79,81,83,85,87,89,91,93,95,97,99,101,103,105,107,109,111,113,115,117,119,121,123,125,-1,-1,-1,-1,-1,-1,-1,-1,-1,-1,-1,-1,-1,-1,-1,-1,-1,-1,-1,-1,-1,-1,-1,-1,-1,-1,-1,-1,-1,-1,-1,-1,-1,-1,-1,-1,-1,-1,-1,-1,-1,-1,-1,-1,-1,-1,-1,-1,-1,-1,-1,-1,-1,-1,-1,-1,-1,-1,-1,-1,-1,-1,-1,-1],"loss_changes":[7.814751E7,1.132563E7,7.1180936E7,3.1169748E6,1.6205144E7,2.7884728E7,1.1421475E8,5.5540775E5,2.5974815E6,1.962544E6,2.095014E6,8.654792E6,4.149232E6,2.2116572E7,2.001892E7,1.4166375E5,3.1683116E5,7.953516E5,1.006342E6,1.032448E6,1.177456E6,1.0973355E6,1.02630644E6,7.82682E5,1.358592E6,1.53371E6,2.755656E6,2.236739E6,7.2073E6,1.0245902E7,4.555516E6,1.0482E4,6.754378E4,3.5246297E4,6.4295562E4,6.87242E4,2.1161562E5,3.769785E5,3.7364025E5,1.08673E5,6.01204E5,2.685525E5,1.289499E6,1.284075E5,5.34473E5,7.582067E4,4.6932762E5,1.9938612E5,1.281085E5,4.61256E5,8.3502E5,4.7947E5,2.50598E5,4.28862E5,7.565E5,1.136036E6,8.992074E5,8.065652E6,1.431743E6,4.665798E6,9.2965E5,1.293968E6,7.88636E5,0E0,0E0,0E0,0E0,0E0,0E0,0E0,0E0,0E0,0E0,0E0,0E0,0E0,0E0,0E0,0E0,0E0,0E0,0E0,0E0,0E0,0E0,0E0,0E0,0E0,0E0,0E0,0E0,0E0,0E0,0E0,0E0,0E0,0E0,0E0,0E0,0E0,0E0,0E0,0E0,0E0,0E0,0E0,0E0,0E0,0E0,0E0,0E0,0E0,0E0,0E0,0E0,0E0,0E0,0E0,0E0,0E0,0E0,0E0,0E0,0E0,0E0,0E0,0E0],"parents":[2147483647,0,0,1,1,2,2,3,3,4,4,5,5,6,6,7,7,8,8,9,9,10,10,11,11,12,12,13,13,14,14,15,15,16,16,17,17,18,18,19,19,20,20,21,21,22,22,23,23,24,24,25,25,26,26,27,27,28,28,29,29,30,30,31,31,32,32,33,33,34,34,35,35,36,36,37,37,38,38,39,39,40,40,41,41,42,42,43,43,44,44,45,45,46,46,47,47,48,48,49,49,50,50,51,51,52,52,53,53,54,54,55,55,56,56,57,57,58,58,59,59,60,60,61,61,62,62],"right_children":[2,4,6,8,10,12,14,16,18,20,22,24,26,28,30,32,34,36,38,40,42,44,46,48,50,52,54,56,58,60,62,64,66,68,70,72,74,76,78,80,82,84,86,88,90,92,94,96,98,100,102,104,106,108,110,112,114,116,118,120,122,124,126,-1,-1,-1,-1,-1,-1,-1,-1,-1,-1,-1,-1,-1,-1,-1,-1,-1,-1,-1,-1,-1,-1,-1,-1,-1,-1,-1,-1,-1,-1,-1,-1,-1,-1,-1,-1,-1,-1,-1,-1,-1,-1,-1,-1,-1,-1,-1,-1,-1,-1,-1,-1,-1,-1,-1,-1,-1,-1,-1,-1,-1,-1,-1,-1],"split_conditions":[3.6E1,2.007E2,1.892E2,1.2E1,2.26597E2,7.4198413E0,2.1959E2,7.4198413E0,7.4198413E0,7.4198413E0,9.119362E0,5.0478435E0,5.7E0,1.993E2,8.226268E0,5.0478435E0,1.855E2,5.0478435E0,6.07E0,2.07667E2,1.2E1,1.2E1,1.2E1,3.8733802E0,5.7E0,1.0258371E1,8.685658E0,2.98E0,9.1E0,2.47284E2,1.3094237E1,3.2461362E0,1.863E2,1.0258371E1,9.165727E0,4.1800575E0,6.07E0,9.165727E0,1.04E0,2.031E2,8.5E0,2.07234E2,8.5E0,2.31221E2,5.5582995E0,3.6140668E-1,2.33669E2,2.7345347E0,4.6593704E0,3.0253325E1,6.5922713E0,4E0,1.76E2,5.599946E0,1.1140093E1,5.1307697E0,9.14423E0,7.4198413E0,2.16995E2,4.547331E0,1.73E0,2.6035503E-1,7.2E0,-1.1944788E-1,-9.8431304E-2,-7.423855E-2,-2.9609958E-2,-4.832738E-2,1.2498247E-2,5.5487078E-2,1.4792295E-1,-5.0029527E-2,2.8764064E-4,1.2640266E-1,4.8639115E-2,2.7529904E-1,4.9254352E-1,4.2586228E-1,1.1676359E-1,-1.15961924E-1,-1.7575331E-1,-3.0368432E-1,-2.2615977E-1,-1.5189399E-1,-3.002218E-1,-5.746531E-1,-3.1441954E-1,-1.566242E-1,-1.1156737E-1,-8.34005E-2,-1.9351592E-2,-7.66871E-2,-1.8309394E-2,2.3574066E-1,6.6292636E-2,5.3338774E-2,2.0432559E-1,3.101504E-1,4.2714968E-1,5.485639E-1,8.8791513E-1,6.970133E-1,9.531129E-1,1.0824628E0,7.774803E-1,1.2245823E0,1.5880862E0,5.840022E-1,1.2907957E0,1.7187108E0,2.2057066E0,6.772428E-2,4.0486166E-1,-3.9241533E-4,-4.947064E-1,-4.7475037E-1,-9.706381E-1,-4.2139325E-1,-1.7635633E-1,6.39605E-2,2.722245E-1,4.9619675E-1,7.222478E-1,4.7251913E-1,6.869345E-1,1.0169529E0,1.4872174E0],"split_indices":[0,8,8,0,8,11,8,11,11,11,9,9,7,8,9,9,8,9,5,8,0,0,0,9,7,11,9,6,7,8,9,9,8,11,11,9,5,11,6,8,7,8,7,8,9,4,8,9,9,2,9,6,8,9,11,9,11,11,8,9,6,4,7,0,0,0,0,0,0,0,0,0,0,0,0,0,0,0,0,0,0,0,0,0,0,0,0,0,0,0,0,0,0,0,0,0,0,0,0,0,0,0,0,0,0,0,0,0,0,0,0,0,0,0,0,0,0,0,0,0,0,0,0,0,0,0,0],"split_type":[0,0,0,0,0,0,0,0,0,0,0,0,0,0,0,0,0,0,0,0,0,0,0,0,0,0,0,0,0,0,0,0,0,0,0,0,0,0,0,0,0,0,0,0,0,0,0,0,0,0,0,0,0,0,0,0,0,0,0,0,0,0,0,0,0,0,0,0,0,0,0,0,0,0,0,0,0,0,0,0,0,0,0,0,0,0,0,0,0,0,0,0,0,0,0,0,0,0,0,0,0,0,0,0,0,0,0,0,0,0,0,0,0,0,0,0,0,0,0,0,0,0,0,0,0,0,0],"sum_hessian":[9.821933E6,6.560742E6,3.261191E6,1.696834E6,4.863908E6,6.0443E5,2.656761E6,8.48575E5,8.48259E5,1.792161E6,3.071747E6,4.61914E5,1.42516E5,9.73987E5,1.682774E6,6.49499E5,1.99076E5,6.4942E5,1.98839E5,1.410904E6,3.81257E5,2.621885E6,4.49862E5,2.01188E5,2.60726E5,7.2805E4,6.9711E4,2.03768E5,7.70219E5,1.337104E6,3.4567E5,2.87421E5,3.62078E5,1.2319E5,7.5886E4,2.8777E5,3.6165E5,8.0559E4,1.1828E5,3.09389E5,1.101515E6,1.908E5,1.90457E5,1.314897E6,1.306988E6,2.25343E5,2.24519E5,9.7685E4,1.03503E5,1.30275E5,1.30451E5,5.3652E4,1.9153E4,3.2506E4,3.7205E4,1.06756E5,9.7012E4,4.99919E5,2.703E5,1.152829E6,1.84275E5,2.99819E5,4.5851E4,8.3764E4,2.03657E5,2.26617E5,1.35461E5,9.0921E4,3.2269E4,4.1413E4,3.4473E4,1.78159E5,1.09611E5,1.48292E5,2.13358E5,4.396E4,3.6599E4,1.0754E4,1.07526E5,1.34283E5,1.75106E5,3.83862E5,7.17653E5,3.8144E4,1.52656E5,9.6525E4,9.3932E4,1.83836E5,1.131061E6,6.90156E5,6.16832E5,9.9975E4,1.25368E5,5.3715E4,1.70804E5,3.3043E4,6.4642E4,6.7743E4,3.576E4,1.19342E5,1.0933E4,7.5277E4,5.5174E4,2.1555E4,3.2097E4,8.792E3,1.0361E4,2.313E3,3.0193E4,2.5591E4,1.1614E4,3.99E4,6.6856E4,8.6721E4,1.0291E4,3.96541E5,1.03378E5,8.8761E4,1.81539E5,4.27337E5,7.25492E5,1.02472E5,8.1803E4,1.1284E5,1.86979E5,3.3722E4,1.2129E4],"tree_param":{"num_deleted":"0","num_feature":"12","num_nodes":"127","size_leaf_vector":"1"}},{"base_weights":[-1.5822877E-3,4.1588387E0,-1.1605843E0,1.6281451E0,7.2914476E0,-5.1729894E0,1.3950179E0,3.9627522E-1,3.343713E0,5.581E0,1.0529784E1,-1.0869808E0,-5.943298E0,5.785409E-1,4.50473E0,3.1570745E0,1.4559856E-1,4.260811E0,-3.3272555E0,4.975451E0,7.891538E0,7.883455E0,1.2865988E1,-6.33919E-1,